tree
version=v3
num_class=1
num_tree_per_iteration=1
label_index=0
max_feature_idx=16
objective=binary sigmoid:1
feature_names=TransactionAmt ProductCD card1 C1 C2 C3 C4 C5 C6 C7 C8 C9 C10 C11 C12 C13 C14
feature_infos=[0.29199999999999998:31937.391] 4:0:2:1:3 7919:9500:15885:17188:15066:12695:12544:6019:2803:10616:7585:12839:3154:2616:18132:9633:15497:16132:2884:16075:10112:11207:7508:10057:12501:7826:12577:7664:16659:5812:4461:6530:7861:5033:8320:7207:10486:7815:15063:10023:9112:4806:16560:13832:16136:9026:11839:4436:1444:7676:12932:2772:17399:14290:2455:1893:3821:1675:11157:17131:9803:1724:1974:17055:18018:2392:15775:17400:11201:13249:8528:3682:15651:18249:9992:15484:12686:14858:1342:2256:4663:16255:12469:9175:8695:6174:6550:10989:9300:1939:8406:6741:8755:11106:13780:18268:4272:9002:9480:6170:13481:15986:16062:5938:10856:13307:11218:13108:10960:12598:5700:9917:10447:4090:10568:4504:11162:2581:11919:17480:8135:2157:1976:9749:14276:6481:3681:14649:14426:18227:4067:6054:9400:4030:17321:1804:6053:7005:16661:6951:1764:4141:9350:16632:12037:3178:10876:13052:6344:14079:8431:8117:2377:3277:7638:15257:16070:1906:2755:11233:11815:16326:2744:8900:16972:8394:17598:15185:14479:17868:1078:2039:12866:16435:12581:3278:4121:9323:3094:12260:17729:7835:11925:15385:2114:2650:16115:1039:1214:9485:10086:15205:5291:7069:14259:5606:8868:3605:6236:13844:16085:5365:12538:13749:15111:15757:14182:18366:5017:15813:12615:7468:16883:10186:6697:1164:10854:16630:6816:12970:11465:8691:16873:17217:1333:7322:16485:7680:11653:4151:6832:12002:3056:2538:1284:2646:4153:4571:6021:7669:10776:12582:2801:3166:9885:10895:13964:3867:14165:5409:7482:11204:12725:14128:5751:11690:5167:2704:11319:13143:18350:2249:5254:5629:18375:8613:9043:4702:5170:13413:15359:17635:5901:8140:12570:16346:2408:4425:6394:14502:5492:5583:11837:13960:15592:3579:5286:7900:12116:13526:13623:1618:5772:6194:16876:2261:3484:6933:10313:10908:1556:6730:6877:12184:14631:15333:1359:2263:4591:6207:6292:7800:16923:1546:3653:17020:6156:9561:10075:13234:10838:14653:3181:12741:4293:9537:3368:6542:15627:4812:11849:8380:15773:16189:14415:10859:12616:18301:6457:10682:11899:15678:8468:13809:14065:16746:16163:18246:10680:14482:12694:13534:17458:3213:3786:3887:7381:7411:11900:13528:14025:18370:1085:13597:15446:5595:8727:14712:16116:17933:3055:3334:4515:4975:16188:16314:5374:12308:17286:3343:7299:11814:12382:18343:4208:4966:12163:14037:14643:1684:6489:8113:14080:14349:14605:16568:1744:6544:7653:9303:11862:13734:15315:16533:16858:7636:10925:14014:15124:15494:8908:10640:8414:15851:16232:4921:4967:6070:7949:15399:15890:3602:14628:14842:16727:10476:13833:15815:1450:4063:4577:8187:10505:12133:13530:14540:1522:3570:9306:9998:12235:12253:13366:5293:6335:10471:10836:14741:5997:6369:8058:9364:12730:13511:13982:14229:2303:6328:7224:9479:10740:14318:14543:17947:2020:3553:4029:7970:10748:17782:17966:15944:17746:2336:2893:2939:6727:7063:10027:13906:13956:15372:2695:5287:14885:1874:6968:8732:15316:17489:9082:11727:5009:5645:6592:6963:9680:11160:11454:12556:16521:3508:7987:10509:14902:15146:17759:1279:1767:5458:5986:6062:6580:7078:7234:8821:10369:10493:11942:12807:12883:13626:1310:3148:8378:12219:12783:15406:15863:16297:1955:2383:11127:12583:18095:1311:3326:4526:6598:6635:15093:5711:7744:10104:14661:15847:16437:17361:17373:3643:6892:7794:8333:8700:10948:11279:11728:12498:16865:2255:4472:5347:6896:7099:12766:13120:15007:1030:1431:1701:3702:4310:4937:6517:8109:10594:13155:14153:14410:16582:16657:4527:5376:12211:14084:14098:15125:15528:17396:1595:3366:3574:7703:8556:8830:11636:12873:14092:17147:17872:18238:1222:1642:2489:3651:4053:5713:9098:11282:13810:16691:17043:17832:7166:10652:12063:13076:13462:1607:6630:10613:11027:12778:13374:14839:18269:18300:1682:3507:3898:5173:12925:14766:16566:16979:18103:2689:9786:13497:13991:14135:14170:18081:2115:2542:2845:3670:3801:4685:5653:5951:5964:8139:8317:10113:13813:14260:14813:15142:15280:17122:17223:18036:3335:5466:6432:8009:10370:11306:12641:15511:16927:17442:17523:18215:2300:2318:2835:8505:9708:9808:10847:12318:13220:13260:14849:1275:1807:2781:3611:3891:4999:5879:5985:7255:8335:8736:9363:10972:14573:14634:16315:17284:17336:17999:2457:2971:5567:6585:7505:9653:10045:11641:12396:13095:1388:1741:2361:2920:2965:3331:4329:4387:4490:4908:7483:8436:8452:8965:11145:12449:12789:13050:13324:14509:17669:2721:2903:4074:5465:5628:5691:5943:8907:9249:10726:12065:12322:12668:12805:17363:17649:18054:18211:5957:6276:6341:7911:8404:8469:9065:9443:9891:10019:10024:10825:11159:12067:14795:15128:15224:16046:17466:17727:18250:1409:1545:1738:2560:2794:3283:5355:6755:6899:7135:8024:8315:8397:8766:8880:9206:9692:10672:11546:12557:12758:13176:15186:15397:16187:16752:17249:17492:2270:2773:3865:7155:7971:8003:8218:8225:8765:8953:9678:9785:10930:13111:14296:14998:16916:17335:17491:17939:1722:2333:2595:4186:5699:5734:5840:6590:8701:9370:9689:10011:10175:10210:11972:13089:14574:14926:16770:17085:17150:1137:1532:2419:3090:3316:3479:4167:4211:4523:4530:5220:5272:5663:5829:6773:7648:8522:10065:10655:12208:12321:14076:14181:15416:16562:16849:17760:1720:1954:2722:3070:3093:3822:4079:4703:6204:6729:7379:7999:8287:9354:9787:11511:11596:13455:13674:13883:15021:17304:1206:1407:1487:2071:2746:3289:4475:4988:5097:5273:5294:5372:5454:5885:6108:6554:6952:7239:7279:7288:7504:7690:8131:8159:8493:9909:9959:10054:11199:11893:13295:13346:13469:13484:13979:14392:15521:16040:16393:17197:17482:18334:1749:3492:3514:5295:7377:7442:9642:10165:10645:11538:11905:13085:14066:16053:16709:16994:16998:1171:1393:1632:1877:2044:2445:2692:2847:3063:3191:3784:4911:5613:6187:6564:6900:7262:7324:8598:9311:9449:9705:10267:10750:10882:11116:11151:11330:11333:11388:11401:11408:11453:11738:11830:12213:13073:13994:15856:15981:16274:17295:17487:18306:1770:1839:2569:3698:4451:4682:5047:5048:5222:5262:5787:5958:6051:6081:6459:6872:7182:8088:9450:9513:9596:10409:11810:12850:13045:13203:14608:14610:15300:15398:16717:17185:17208:17265:17306:18039:18080:1129:1678:1756:2748:2753:2807:3717:3771:4100:4463:5051:5089:5571:5714:6525:6573:6721:6778:7076:7177:7225:7969:8077:8251:8416:8763:8937:10142:11516:11556:11794:13335:13360:13815:15286:15687:15845:17175:17995:18178:18390:2074:2101:2437:2898:2947:4726:5061:5122:5729:5909:6284:6405:7034:7157:7164:7298:7307:7862:8347:8474:9178:9515:9552:9588:9635:10454:10736:10770:11167:12361:12877:13136:13241:13615:15562:15662:16473:17007:17108:17409:1661:2667:2783:3451:3742:3754:4174:4209:5168:5680:6141:6546:6907:7037:7474:7698:8106:8684:9032:10230:10741:10975:11386:11467:11868:12364:12386:12648:12928:13676:13786:14184:14186:14405:15160:15176:15265:15538:15859:15998:16003:16498:16666:16672:17057:17162:18117:1406:1490:1555:2063:2610:2752:2927:3020:3310:3808:4097:4285:4467:4606:4739:4854:6068:6382:6615:6739:6855:6932:7170:7272:7292:7357:7551:7851:7875:7978:8671:8809:8917:8987:9379:9456:9549:9592:9656:9856:10063:10179:10549:10769:11028:11085:11180:11555:11852:12293:12358:12567:12747:13470:13917:14280:14819:15898:16048:16279:16489:16578:16901:17262:17756:17794:17926:18272:1092:1231:1762:1825:2022:2356:2795:2830:2917:3033:3379:3621:3679:4443:4778:4900:4976:5147:5724:5962:6004:6128:6209:6319:6470:6886:6889:7336:7339:7709:7757:7901:8222:8457:8618:9166:10047:10532:10631:11477:11725:11927:12705:13042:13230:13276:13488:15242:15368:15603:15668:15823:15909:16277:16338:16631:16751:16845:16874:16993:17168:17607:17817:18027:1314:1363:1553:1737:1802:1859:2180:2407:2683:3330:3524:3901:3978:4115:4456:4476:4507:4613:4693:5211:5277:5463:5468:5878:6453:6507:6957:7103:7220:7337:7762:7894:8718:8774:8776:8807:9136:9365:9375:10037:10107:10155:10188:10349:10686:10752:10785:11298:11492:11755:11863:11963:12526:14576:15318:15916:16000:16476:16538:16547:16554:16706:16783:16790:16899:16986:17404:17910:18030:1113:1225:1458:1690:2254:2449:2471:2551:2561:2622:2994:3281:4039:4347:4609:4767:4929:5558:5815:6180:6256:6556:6691:6774:6924:7438:7787:7963:8415:8499:8661:8842:8983:9022:9387:9426:9702:9874:10049:10585:10605:10626:11280:11444:11523:11534:11626:11701:11704:12019:12099:12118:12148:12190:13207:13398:13541:13663:14337:14700:14823:15020:15099:15553:15597:16030:16095:16131:16245:16341:16483:16638:16930:17254:17405:17540:1870:2052:2125:2443:3084:3275:3576:3672:3870:3917:4148:4273:4578:4759:4894:5353:5524:5535:5698:6059:6122:6835:6917:6940:6958:6961:6970:7243:7449:7511:7984:8177:8486:8519:9390:9677:9766:9938:10262:10565:10636:10889:10967:11065:11265:11660:11922:12330:12451:12474:12723:12820:12891:13160:13273:13414:13478:13551:14152:14216:14265:14332:14335:14386:14494:14626:14774:14781:15396:16079:16216:16224:16494:16658:16852:17000:17300:17524:17534:18292:18385:1288:1332:1377:1700:1726:1865:1991:2162:2234:2354:2478:2660:2839:2922:3058:3150:3274:3295:3337:3623:3655:3983:4112:4198:4219:4394:4557:4662:4694:4741:4780:4859:4951:5394:5853:5893:5903:5928:6049:6065:6230:6237:6313:6584:6921:7542:7586:8260:8288:8489:8501:8719:9316:9711:9985:10004:10029:10094:10723:10743:10771:11343:11710:11870:12435:12473:12844:12911:13149:13719:14053:14089:14308:14511:14641:14727:14908:15377:15790:15887:15990:16407:16436:16982:17111:17148:17205:17374:17720:1161:1365:1426:1501:1508:1894:1923:2049:2307:2614:3010:3411:3419:3631:3673:3799:3900:3916:3928:3937:4089:4497:4605:4998:5079:5146:5241:5818:5822:5912:5978:6520:6700:6883:6906:7031:7144:7194:7197:7309:7407:7529:7563:7710:7921:7950:7994:8199:8226:8256:8359:8432:8606:8851:9087:9169:9263:9421:9455:9696:9753:9884:10052:10162:10258:10350:10415:10489:10848:11121:11143:11148:11717:11817:11986:12296:12552:12592:12619:12690:12691:13258:13281:13285:13395:13558:13691:13886:14206:14310:14407:14431:14432:14589:14874:14887:15107:15159:15221:15238:15343:15436:15543:15691:15742:15832:15969:16146:16348:16355:16362:16457:16750:16767:16779:16819:16828:16870:17098:17118:17207:17452:17593:17675:18084:18157:18190:18255:18307:1208:1335:1338:1477:1577:1692:1702:1752:1914:1929:2021:2146:2150:2231:2275:2519:2601:2969:3002:3556:3716:3757:3985:4113:4227:4231:4480:4752:4978:5005:5131:5561:5626:5646:5690:5846:6016:6293:6361:6415:6516:6847:6859:7025:7079:7159:7282:7431:7493:7554:7640:7945:7951:8019:8223:8409:8466:8608:8652:8679:8760:8835:9006:9013:9072:9168:9197:9269:9345:9353:9357:9529:9767:9805:9921:9964:10043:10260:10321:10340:10497:10537:10579:11107:11108:11150:11366:11451:11630:11735:12008:12042:12411:12511:13039:13178:13199:13621:13715:13836:13850:13893:13952:14077:14147:14223:14253:14517:14588:14591:14618:14636:14637:14645:14667:15079:15095:15427:15452:15466:15489:15548:15721:15735:15989:16108:16584:16960:17009:17076:17136:17602:17698:17767:17886:17984:18015:18195:18377:1120:1240:1252:1412:1506:1585:1616:1668:1837:1904:1922:2059:2295:2308:2518:2960:2979:3106:3347:3375:3502:3571:3593:3756:3899:3998:4093:4147:4199:4346:4457:4468:4614:4648:4679:4737:4791:4882:4949:5001:5022:5072:5149:5305:5360:5469:5596:5635:5703:5844:6061:6063:6123:6288:6366:6458:6572:6793:6936:6942:6980:7410:7720:7728:7858:7931:8060:8165:8233:8273:8423:8453:8802:8898:8933:9153:9304:9538:9559:9665:10106:10199:10240:10246:10462:10719:10763:10846:10924:11359:11757:11960:12034:12176:12277:12345:12365:12389:12418:12487:12958:13509:13525:13560:13593:13888:13932:14030:14099:14193:14255:14292:14357:14382:14762:15113:15127:15290:15591:15713:15889:16034:16617:17394:17410:17556:17657:17723:17781:17946:1028:1324:1404:1473:1486:1713:1761:1775:1812:1869:1946:2103:2309:2320:2423:3052:3121:3172:3422:3874:3926:3989:4014:4184:4201:4216:4301:4336:4485:4822:4868:4905:4973:5101:5155:5260:5338:5537:5605:5620:5666:5738:5789:5809:6069:6077:6105:6211:6252:6455:6485:6487:6659:6722:7121:7127:7153:7222:7241:7503:7565:7663:7670:7730:7938:8002:8148:8481:8533:8590:8646:8692:8717:8757:8810:8823:8825:8849:8978:9011:9101:9393:9441:9499:9571:9629:9728:9966:9989:10177:10239:10252:10317:10414:10667:10697:10706:10787:10881:10894:10979:11078:11100:11131:11360:11410:11459:11669:11708:11724:11799:11802:11846:11892:11987:12005:12026:12045:12128:12209:12275:12357:12551:12571:12689:12722:12738:12779:12797:12889:12972:13053:13145:13152:13209:13262:13283:13407:13461:13501:13555:13627:13672:13771:13926:14179:14203:14289:14367:14372:14512:14544:14553:14651:14685:14714:14785:15084:15106:15172:15232:15236:15254:15261:15314:15405:15623:15679:15835:15930:15949:15968:15971:16011:16177:16203:16312:16313:16452:16461:16504:16655:16786:16799:17001:17022:17088:17107:17303:17370:17412:17435:17469:17499:17541:17644:17701:17881:17949:18086:18093:18129:18265:1066:1070:1233:1242:1257:1355:1428:1516:1588:1633:1765:1814:2259:2302:2332:2337:2341:2567:2572:2598:2611:2627:2639:2708:2930:2963:3009:3130:3136:3186:3258:3290:3478:3489:3516:3529:3614:3666:3724:3725:3729:3780:3819:3869:3895:3924:4002:4085:4096:4194:4244:4334:4357:4610:4650:4738:4944:4983:5195:5284:5401:5436:5638:5658:5677:5678:5741:5832:5911:6086:6107:6265:6303:6353:6354:6357:6448:6482:6490:6563:6692:6707:6751:6804:7040:7143:7149:7215:7301:7304:7427:7562:7629:7868:7941:8175:8231:8264:8573:8642:8787:8817:8981:9003:9018:9039:9069:9091:9100:9114:9186:9192:9338:9472:9521:9645:9703:9936:10114:10135:10159:10311:10439:10501:10553:10691:10716:10795:11019:11181:11195:11378:11423:11443:11482:11533:11565:11652:11675:11680:11720:11781:11796:11916:12017:12087:12221:12455:12508:12600:12786:12907:12929:12973:13240:13252:13370:13550:13569:13642:13717:13739:14131:14208:14317:14324:14409:14428:14580:14627:14662:14835:14876:14907:14959:14963:15010:15030:15177:15215:15322:15471:15480:15496:15525:15604:15621:15672:15762:15834:16167:16308:16375:16519:16654:16674:16682:16708:16840:16853:16898:16991:17035:17099:17100:17124:17232:17307:17416:17465:17478:17517:17545:17577:17583:17667:17838:17854:17871:17896:17899:17942:18092:18099:18112:18124:18200:18226:18279:18283:1047:1083:1142:1219:1441:1476:1557:1790:1809:1876:1968:2072:2202:2222:2228:2245:2464:2480:2516:2597:2631:2710:2760:2779:2872:2941:2950:2997:3028:3040:3171:3189:3372:3413:3522:3546:3601:3613:3663:3683:3732:3737:3844:3880:3929:4011:4072:4123:4128:4136:4192:4248:4253:4274:4343:4356:4538:4576:4692:4698:4701:4857:4970:4982:5032:5160:5191:5237:5245:5290:5333:5341:5344:5396:5397:5408:5433:5523:5552:5577:5623:5631:5633:5641:6038:6147:6177:6304:6318:6363:6519:6745:6749:6753:6771:6786:6843:6902:6998:7000:7006:7043:7074:7152:7212:7264:7507:7546:7559:7591:7654:7806:7865:7892:8020:8033:8136:8174:8182:8198:8213:8310:8349:8382:8688:8751:8780:8866:8931:8991:9071:9128:9237:9290:9305:9310:9408:9428:9436:9440:9547:9582:9591:9605:9624:9715:9734:9876:9897:9941:9954:10007:10009:10236:10346:10391:10400:10437:10496:10622:10630:10662:10737:10775:10818:10955:10985:11066:11222:11313:11430:11635:11698:11714:11726:11774:11884:11898:11904:11920:11965:12023:12167:12170:12172:12425:12531:12794:12822:12846:12906:12921:12923:12980:13123:13375:13427:13443:13457:13465:13472:13521:13567:13602:13840:13882:13896:13915:13929:14004:14009:14031:14036:14042:14043:14052:14189:14209:14351:14456:14478:14650:14755:14777:14804:14879:14909:15016:15050:15057:15062:15241:15320:15344:15381:15404:15512:15517:15569:15640:15812:15899:15977:16004:16007:16064:16081:16158:16160:16165:16236:16253:16270:16380:16389:16460:16486:16645:16676:16686:16764:16826:16929:16934:16988:17025:17139:17171:17348:17390:17433:17481:17526:17532:17542:17613:17677:17714:17919:17923:17957:17962:18013:18020:18109:18141:18159:18270:18305:18346:1013:1027:1101:1124:1135:1181:1281:1308:1322:1416:1419:1465:1563:1592:1599:1663:1739:1740:1799:1888:1903:1919:1986:2117:2127:2177:2194:2237:2242:2251:2286:2367:2482:2487:2607:2648:2671:2687:2714:2740:2742:2946:3046:3089:3112:3124:3301:3351:3377:3441:3461:3474:3496:3582:3632:3660:3665:3743:3827:3890:3972:4126:4200:4270:4294:4377:4385:4395:4470:4661:4815:5002:5081:5085:5102:5186:5247:5251:5292:5329:5339:5398:5406:5474:5521:5550:5556:5576:5609:5618:5670:5835:5864:5950:5963:6005:6014:6037:6197:6228:6229:6281:6355:6388:6401:6412:6419:6423:6428:6434:6437:6571:6586:6705:6806:6908:6984:7012:7246:7311:7332:7382:7389:7423:7484:7487:7497:7592:7628:7673:7807:7814:7841:7856:7998:8037:8049:8075:8190:8246:8278:8284:8321:8340:8402:8503:8540:8586:8664:8753:8864:8886:8902:8915:8938:8949:8972:9044:9079:9183:9288:9297:9398:9448:9451:9486:9487:9497:9509:9615:9675:9697:9797:9817:9818:9913:9940:9973:9982:9995:10034:10035:10051:10053:10078:10083:10122:10123:10144:10147:10276:10332:10389:10521:10542:10545:10555:10676:10791:10839:10893:10922:10947:11236:11272:11312:11471:11481:11541:11604:11666:11716:11752:11902:11966:11992:12055:12057:12059:12060:12097:12098:12168:12173:12226:12257:12262:12397:12427:12442:12499:12590:12654:12659:12687:12699:12729:12751:12784:12975:13023:13119:13167:13169:13191:13256:13290:13345:13354:13383:13487:13500:13553:13585:13750:13754:13842:13858:13992:14015:14058:14082:14102:14191:14218:14230:14284:14301:14454:14495:14556:14622:14681:14692:14715:14719:14769:14817:14848:15035:15058:15081:15108:15155:15165:15230:15245:15277:15323:15428:15451:15457:15563:15617:15622:15671:15682:15756:15792:15806:15933:15947:16037:16117:16148:16192:16193:16250:16272:16317:16367:16383:16426:16479:16583:16605:16681:16699:16734:16736:16795:16878:16882:16959:17067:17167:17296:17347:17384:17438:17498:17514:17555:17562:17604:17632:17670:17726:17728:17736:17874:17913:18011:18037:18137:18156:18193:18216:18233:18376:1048:1056:1064:1098:1103:1223:1258:1300:1334:1341:1364:1387:1410:1411:1427:1482:1565:1596:1639:1662:1686:1696:1730:1784:1793:1942:1944:2055:2169:2198:2232:2328:2426:2454:2485:2528:2532:2573:2587:2608:2612:2678:2725:2731:2741:2785:2805:2876:2877:2885:2914:2952:3067:3109:3132:3184:3203:3300:3327:3407:3421:3423:3446:3536:3551:3568:3638:3669:3674:3685:3715:3761:3789:3790:3813:3962:4007:4036:4045:4052:4101:4105:4106:4130:4213:4214:4217:4238:4421:4444:4458:4478:4493:4494:4652:4658:4675:4742:4766:4773:4827:4836:4852:4866:4971:5121:5123:5151:5183:5194:5212:5283:5297:5299:5318:5345:5511:5599:5673:5679:5706:5868:5890:5902:5914:5935:5940:5945:5952:5983:6035:6094:6095:6102:6104:6140:6203:6223:6226:6255:6326:6352:6372:6439:6441:6465:6498:6595:6623:6666:6704:6718:6789:6800:6868:6910:6931:6978:6997:7038:7070:7093:7343:7349:7390:7398:7440:7488:7552:7556:7561:7610:7618:7632:7689:7699:7723:7749:7753:7756:7786:7871:7903:7960:8031:8083:8099:8102:8103:8119:8129:8172:8202:8261:8296:8400:8410:8460:8624:8628:8637:8662:8696:8770:8778:8785:8803:8812:8839:8906:8913:8914:8919:8946:8954:8962:8986:9046:9196:9224:9335:9339:9389:9445:9488:9491:9498:9543:9623:9646:9736:9770:9772:9946:9965:9999:10041:10069:10145:10150:10222:10229:10235:10244:10251:10270:10291:10303:10368:10372:10405:10470:10480:10492:10578:10581:10661:10734:10786:10834:10864:10866:10923:10966:10996:11400:11639:11657:11761:11804:11808:11890:11967:12075:12094:12096:12141:12244:12287:12363:12420:12518:12640:12676:12711:12731:12926:12945:12950:12951:13006:13009:13013:13021:13072:13088:13104:13138:13157:13162:13175:13205:13233:13235:13261:13301:13313:13331:13351:13381:13422:13531:13562:13565:13670:13682:13722:13724:13740:13768:13825:13899:14057:14100:14176:14215:14277:14278:14298:14397:14441:14537:14590:14621:14657:14670:14682:14695:14725:14749:14754:14776:14800:14827:14881:14916:14960:15135:15137:15182:15207:15220:15271:15276:15301:15308:15491:15500:15561:15575:15642:15747:15765:15782:15786:15855:15917:15954:16006:16059:16100:16110:16127:16261:16281:16320:16378:16382:16431:16445:16450:16508:16532:16671:16679:16774:16777:16809:16868:17024:17047:17072:17143:17176:17183:17187:17250:17252:17255:17263:17266:17288:17319:17345:17393:17557:17566:17605:17631:17648:17680:17685:17730:17789:18026:18088:18101:18118:18151:18166:18183:18281:1042:1057:1079:1155:1175:1186:1238:1243:1255:1269:1286:1358:1373:1381:1429:1433:1474:1524:1572:1603:1608:1617:1626:1693:1712:1723:1785:1806:1852:1857:1863:1941:1950:1966:1967:1975:1998:2005:2031:2035:2046:2057:2170:2179:2217:2365:2368:2391:2409:2415:2416:2465:2476:2495:2531:2541:2559:2620:2635:2745:2782:2816:2841:2848:2862:2886:2897:2931:2972:2977:2981:2993:3031:3059:3083:3101:3107:3113:3187:3200:3235:3252:3260:3291:3312:3322:3324:3336:3342:3367:3388:3396:3397:3445:3470:3473:3510:3515:3518:3542:3577:3594:3658:3664:3675:3738:3744:3749:3773:3798:3841:3843:3876:3915:3934:3939:3945:3955:3960:3984:4022:4049:4109:4125:4133:4146:4168:4169:4190:4221:4225:4228:4239:4252:4263:4321:4351:4383:4477:4482:4499:4510:4531:4558:4641:4672:4683:4705:4743:4745:4763:4774:4784:4819:4832:4869:4945:4997:5013:5014:5031:5046:5054:5056:5063:5073:5082:5135:5182:5204:5210:5275:5361:5435:5471:5505:5554:5584:5588:5619:5686:5723:5804:5860:5887:5968:5973:5988:5993:6042:6092:6093:6098:6157:6206:6222:6232:6233:6285:6308:6358:6385:6392:6396:6398:6488:6606:6609:6619:6656:6663:6678:6693:6782:6812:6844:6848:6862:6864:6897:7001:7009:7091:7161:7178:7195:7205:7213:7216:7244:7254:7256:7305:7321:7323:7393:7422:7434:7466:7510:7539:7543:7545:7573:7605:7621:7716:7751:7768:7769:7782:7793:7817:7819:7834:7877:7893:7925:7974:8007:8035:8097:8104:8112:8118:8122:8200:8292:8313:8322:8345:8353:8358:8389:8396:8430:8444:8488:8497:8518:8538:8567:8569:8575:8576:8626:8632:8698:8713:8788:8801:8831:9009:9049:9056:9064:9096:9124:9137:9142:9162:9190:9202:9212:9245:9248:9284:9292:9318:9343:9359:9386:9417:9419:9424:9435:9442:9447:9468:9542:9566:9593:9622:9631:9663:9726:9740:9821:9842:9865:9870:9901:9914:10073:10082:10120:10164:10180:10185:10209:10234:10245:10269:10309:10334:10342:10360:10399:10407:10432:10446:10450:10461:10488:10515:10548:10595:10708:10713:10724:10727:10754:10801:10804:10805:10851:10878:10880:10883:10944:11105:11149:11175:11200:11214:11238:11266:11281:11302:11303:11329:11331:11342:11371:11379:11395:11396:11456:11506:11509:11515:11531:11537:11581:11609:11624:11632:11633:11634:11640:11647:11700:11712:11723:11800:11822:11835:11848:11926:11991:12016:12018:12033:12071:12092:12145:12155:12157:12159:12177:12192:12203:12216:12241:12243:12276:12422:12430:12476:12484:12489:12514:12572:12599:12603:12623:12646:12673:12680:12728:12763:12793:12920:12942:12944:12954:12977:12981:13058:13067:13164:13174:13201:13248:13266:13274:13275:13309:13310:13311:13315:13368:13377:13402:13491:13507:13514:13535:13572:13600:13640:13652:13685:13687:13699:13748:13757:13774:13808:13814:13865:13919:13921:13978:14028:14039:14129:14171:14172:14212:14269:14275:14362:14376:14384:14389:14421:14444:14463:14475:14480:14525:14546:14550:14554:14561:14572:14575:14629:14730:14743:14792:14803:14805:14864:14873:14889:14901:14905:14906:14934:14961:15000:15006:15029:15080:15203:15216:15227:15267:15268:15281:15287:15340:15365:15378:15419:15443:15447:15481:15504:15516:15530:15531:15558:15566:15593:15631:15656:15665:15706:15715:15772:15801:15830:15880:15928:15940:15975:15985:16017:16050:16051:16157:16164:16181:16182:16214:16249:16305:16344:16351:16352:16366:16406:16443:16475:16509:16510:16511:16559:16623:16629:16748:16806:16824:16863:16869:16889:16897:16918:16932:16954:16955:16963:16985:16997:17006:17013:17045:17089:17101:17109:17114:17129:17156:17216:17276:17282:17341:17342:17364:17383:17421:17425:17547:17551:17560:17568:17572:17587:17625:17652:17656:17665:17681:17705:17718:17754:17768:17772:17895:17898:17969:17970:18063:18100:18123:18186:18188:18209:18234:18271:18274:18278:18298:18309:18337:18340:18341:18345:18373:18384:18387:1009:1036:1107:1115:1128:1138:1156:1172:1189:1191:1262:1294:1346:1375:1417:1443:1454:1475:1479:1529:1533:1541:1551:1574:1582:1594:1598:1624:1646:1650:1676:1680:1699:1705:1729:1736:1778:1780:1830:1853:1875:1882:1988:1993:1999:2006:2011:2027:2033:2058:2066:2107:2126:2148:2156:2212:2248:2271:2273:2285:2289:2296:2313:2324:2334:2342:2393:2402:2412:2413:2453:2456:2513:2525:2539:2546:2574:2603:2605:2609:2640:2647:2670:2675:2682:2705:2727:2756:2757:2759:2786:2790:2804:2823:2825:2869:2890:2926:2955:2958:2987:3003:3077:3111:3145:3147:3173:3175:3195:3210:3227:3228:3232:3257:3308:3311:3344:3355:3361:3386:3412:3459:3487:3520:3530:3565:3569:3575:3595:3599:3606:3607:3633:3676:3680:3687:3690:3692:3710:3734:3762:3772:3796:3804:3818:3828:3835:3853:3882:3922:3943:3957:3967:3995:3999:4025:4068:4078:4095:4107:4110:4140:4142:4166:4178:4226:4229:4237:4251:4282:4288:4333:4342:4366:4367:4396:4409:4424:4446:4502:4579:4586:4619:4635:4724:4730:4735:4744:4755:4761:4770:4779:4786:4813:4818:4821:4826:4834:4849:4858:4876:4889:4924:4932:4933:4974:5008:5027:5059:5105:5106:5111:5113:5137:5163:5166:5172:5177:5181:5192:5214:5300:5303:5307:5310:5346:5358:5384:5415:5427:5428:5437:5439:5451:5575:5589:5612:5614:5636:5643:5647:5651:5664:5672:5707:5719:5784:5786:5793:5830:5834:5838:5873:5882:5891:5913:5924:5925:5937:5961:5970:5996:6008:6015:6083:6125:6127:6134:6166:6171:6185:6190:6225:6251:6259:6275:6377:6393:6438:6452:6473:6474:6486:6521:6533:6536:6543:6567:6594:6596:6604:6621:6637:6647:6648:6658:6668:6672:6702:6747:6758:6761:6767:6794:6814:6819:6825:6851:6867:6885:6894:6930:6977:6982:6990:7035:7036:7062:7094:7105:7137:7139:7181:7259:7280:7281:7313:7325:7341:7355:7380:7397:7403:7414:7420:7447:7453:7458:7469:7486:7498:7530:7533:7544:7550:7602:7637:7651:7675:7704:7765:7810:7829:7874:7883:7913:7917:7934:7940:7956:7972:8032:8039:8053:8057:8065:8067:8080:8086:8089:8101:8110:8153:8161:8195:8197:8221:8245:8248:8306:8314:8348:8361:8369:8370:8411:8413:8463:8500:8547:8554:8580:8583:8589:8599:8605:8620:8622:8640:8655:8660:8674:8675:8712:8744:8791:8816:8829:8841:8860:8865:8901:8924:8928:8945:8948:8960:8964:8971:9017:9047:9048:9081:9085:9120:9122:9139:9164:9189:9201:9215:9218:9228:9234:9257:9267:9274:9298:9324:9332:9341:9369:9397:9409:9459:9465:9471:9489:9490:9527:9533:9539:9544:9546:9565:9578:9579:9586:9611:9650:9661:9674:9693:9698:9700:9719:9732:9738:9739:9742:9769:9781:9794:9820:9835:9836:9848:9853:9881:9898:9915:9919:9934:9937:9987:10003:10025:10079:10080:10102:10127:10131:10133:10138:10146:10148:10168:10216:10242:10273:10282:10297:10315:10322:10365:10435:10459:10460:10513:10517:10533:10547:10564:10586:10615:10635:10649:10659:10694:10703:10715:10717:10725:10730:10745:10749:10757:10842:10872:10905:10907:10909:10941:10956:10958:10987:10990:11013:11034:11050:11056:11074:11089:11092:11096:11168:11177:11251:11259:11291:11339:11345:11349:11352:11357:11368:11377:11399:11406:11418:11427:11447:11448:11472:11473:11491:11504:11518:11520:11522:11527:11535:11573:11587:11646:11651:11663:11664:11677:11681:11686:11688:11691:11693:11719:11731:11767:11783:11805:11820:11847:11879:11886:11932:11957:11983:11984:12021:12074:12077:12105:12106:12108:12110:12156:12160:12175:12179:12195:12220:12236:12270:12273:12316:12341:12398:12421:12433:12441:12459:12467:12491:12512:12543:12553:12555:12573:12586:12593:12595:12602:12614:12617:12618:12620:12638:12655:12666:12669:12679:12683:12684:12710:12714:12749:12769:12781:12803:12817:12868:12887:12917:12948:12956:12976:12979:12990:13001:13037:13114:13124:13139:13202:13217:13242:13253:13305:13321:13342:13432:13458:13486:13496:13516:13522:13527:13543:13556:13595:13669:13697:13706:13726:13731:13743:13767:13772:13802:13819:13831:13834:13868:13876:13887:13901:13910:13936:13939:13977:13998:14012:14019:14083:14088:14117:14143:14169:14225:14249:14305:14306:14320:14355:14370:14394:14420:14455:14497:14518:14560:14603:14630:14633:14644:14646:14665:14676:14704:14711:14723:14729:14731:14734:14748:14793:14816:14911:14913:14925:14958:14971:14981:14984:15015:15023:15027:15055:15067:15087:15096:15162:15173:15191:15200:15211:15222:15231:15244:15249:15250:15278:15291:15312:15327:15358:15388:15411:15420:15426:15445:15507:15527:15576:15582:15587:15589:15595:15628:15632:15641:15647:15650:15675:15676:15696:15728:15769:15796:15797:15798:15799:15802:15816:15820:15864:15875:15884:15893:15910:15965:15974:16002:16015:16024:16041:16063:16076:16092:16106:16111:16125:16149:16151:16170:16173:16180:16210:16219:16228:16234:16276:16286:16287:16288:16290:16321:16354:16359:16399:16405:16419:16430:16444:16572:16575:16603:16609:16636:16642:16796:16807:16814:16817:16821:16850:16859:16908:16964:16970:17003:17010:17012:17015:17032:17049:17064:17070:17094:17116:17128:17130:17137:17141:17151:17218:17270:17271:17280:17291:17301:17318:17333:17359:17367:17371:17389:17392:17422:17451:17461:17483:17564:17571:17610:17611:17618:17636:17645:17666:17689:17696:17706:17751:17764:17820:17826:17831:17841:17843:17844:17855:17904:17911:17924:17935:17943:17965:18001:18028:18034:18035:18045:18046:18089:18096:18104:18106:18122:18130:18148:18201:18225:18243:18277:18335 [0:4685] [0:5691] [0:26] [0:2253] [0:332] [0:2253] [0:2255] [0:3331] [0:210] [0:3257] [0:3188] [0:3188] [0:2918] [0:1429]
tree_sizes=55266 56294 56275 56283 56299 56262 56271 56297 56283

Tree=0
num_leaves=312
num_cat=23
split_feature=9 16 3 15 3 2 2 6 3 15 13 10 15 13 2 7 11 3 4 15 3 6 3 2 16 16 0 15 15 6 14 15 3 7 2 8 11 11 8 3 11 4 3 15 3 3 8 3 0 13 3 16 3 16 0 15 9 13 3 0 16 2 11 2 9 15 3 2 2 13 14 12 3 4 4 10 8 12 4 0 7 3 14 4 10 8 4 15 8 3 10 14 0 6 10 4 2 0 0 2 15 3 1 0 11 3 12 8 3 4 0 0 7 4 4 8 0 9 11 12 3 3 0 15 4 15 10 2 2 0 2 11 16 15 11 7 15 4 3 11 3 3 4 0 14 12 15 3 8 11 14 15 15 15 0 0 2 14 8 3 12 3 9 15 4 0 6 4 3 15 3 3 8 11 15 10 15 0 0 0 11 15 8 16 8 0 11 2 8 10 0 0 2 14 3 13 0 3 8 4 1 13 4 3 15 6 7 3 16 4 15 3 12 11 4 0 13 15 8 13 1 7 0 15 3 0 12 0 13 2 15 8 15 3 2 8 16 14 11 15 3 3 11 3 10 4 15 0 8 3 0 16 12 3 15 13 3 7 0 3 10 12 15 3 1 15 8 3 16 10 6 15 11 7 0 12 9 15 0 15 7 4 8 15 0 11 0 0 4 15 15 3 16 10 0 15 8 6 11 0 3 0 3 16 8 10 8 0 3 8 0
split_gain=24849.7 9749.85 17635.8 6083.33 8893.63 4388.63 2733.16 2051.68 3652.11 4401.46 1906.31 1711.3 1640.76 1374.75 1320.01 1034.77 1372.88 1127.99 1003.92 757.198 843.549 668.618 834.023 605.068 574.071 571.344 563.496 553.533 549.49 620.067 548.115 510.114 768.386 500.162 750.287 478.962 478.332 474.121 473.618 647.489 461.265 459.212 441.333 865.156 425.437 418.01 410.196 695.569 404.187 357.058 348.203 780.21 341.252 337.972 360.911 322.869 321.522 317.369 431.353 363.246 315.847 313.852 309.637 307.497 278.383 273.126 332.502 266.232 255.494 294.358 252.481 250.739 245.984 245.379 239.028 405.755 236.677 472.907 294.434 229.328 569.964 287.659 224.346 220.756 213.963 212.234 886.653 206.786 205.314 211.364 204.092 220.709 378.761 202.607 1250.04 268.07 201.48 703.698 201.464 379.319 200.96 197.644 189.846 309.528 184.555 239.611 175.28 174.808 167.978 498.509 165.58 161.92 319.657 159.339 154.58 149.152 148.581 143.585 140.329 139.999 136.532 135.851 134.859 133.922 133.31 131.307 128.822 128.814 127.034 124.901 124.253 137.935 308.765 124.222 121.167 135.518 176.779 192.882 213.363 141.79 230.092 120.236 118.444 230.163 120.85 114.257 282.437 179.985 108.969 110.566 108.405 244.654 198.941 104.653 188.713 104.324 102.611 102.319 226.5 101.925 101.277 112.809 99.623 99.1806 99.1315 150.756 140.535 98.5826 98.47 150.244 97.7646 97.6541 97.521 97.0518 94.9193 93.8617 91.997 91.4166 91.1764 124.342 89.899 179.715 234.651 88.0145 92.0827 87.6707 87.323 86.8757 86.5176 85.8802 84.0458 130.334 83.224 290.226 83.0969 82.6889 82.2716 81.3302 80.5193 78.8762 78.8623 78.5108 84.2836 78.4514 592.673 105.58 78.2971 332.169 134.053 78.1299 109.007 77.453 77.2928 76.7765 92.3003 111.554 75.8186 97.8109 248.663 75.7029 75.6045 76.5454 131.66 146.793 86.8214 73.523 72.7788 98.0697 71.9305 383.276 213.803 234.538 190.906 174.952 151.161 144.796 293.678 437.822 288.842 143.943 273.32 109.436 100.494 93.4519 98.2555 90.7113 85.1826 82.5167 110.181 69.4042 68.9182 67.7827 183.456 268.671 72.2559 114.742 67.7492 67.6998 80.8673 65.214 65.1404 119.843 64.7833 65.8999 64.35 81.1898 180.878 69.4658 64.1464 64.1159 62.55 61.8472 91.6024 60.2809 59.078 59.06 58.371 57.9948 57.8786 56.6443 187.1 56.6353 56.4364 84.0495 56.2012 114.206 55.0955 182.884 54.1945 53.9151 53.6558 130.151 192.106 96.462 53.063 52.514 78.6103 52.3599 52.0893 83.2902 51.0753 51.0387 50.4285 276.178 143.925 60.8056 64.4237 50.179 49.9805 83.9554 63.2396
threshold=3.5000000000000004 1.0000000180025095e-35 2.5000000000000004 19.500000000000004 8.5000000000000018 0 1 1.5000000000000002 5.5000000000000009 7.5000000000000009 1.5000000000000002 1.0000000180025095e-35 37.500000000000007 13.500000000000002 2 1.0000000180025095e-35 1.0000000180025095e-35 5.5000000000000009 2.5000000000000004 1.5000000000000002 3.5000000000000004 1.0000000180025095e-35 1.5000000000000002 3 3.5000000000000004 2.5000000000000004 82.009500000000017 5.5000000000000009 2.5000000000000004 3.5000000000000004 1.5000000000000002 2.5000000000000004 3.5000000000000004 1.0000000180025095e-35 4 5.5000000000000009 8.5000000000000018 3.5000000000000004 2.5000000000000004 4.5000000000000009 4.5000000000000009 1.5000000000000002 41.500000000000007 12.500000000000002 1.5000000000000002 6.5000000000000009 3.5000000000000004 1.5000000000000002 225.98500000000004 3.5000000000000004 8.5000000000000018 2.5000000000000004 1.0000000180025095e-35 5.5000000000000009 59.995500000000014 4.5000000000000009 1.0000000180025095e-35 2.5000000000000004 2.5000000000000004 76.995000000000019 1.5000000000000002 5 5.5000000000000009 6 1.0000000180025095e-35 1.5000000000000002 2.5000000000000004 7 8 3.5000000000000004 1.0000000180025095e-35 8.5000000000000018 17.500000000000004 16.500000000000004 58.500000000000007 12.500000000000002 1.0000000180025095e-35 4.5000000000000009 2.5000000000000004 844.97500000000014 1.0000000180025095e-35 1.5000000000000002 1.0000000180025095e-35 4.5000000000000009 16.500000000000004 10.500000000000002 2.5000000000000004 1.0000000180025095e-35 1.5000000000000002 1.5000000000000002 4.5000000000000009 1.0000000180025095e-35 400.09000000000009 71.000000000000014 61.500000000000007 307.00000000000006 9 48.955000000000005 350.02000000000004 10 32.500000000000007 4.5000000000000009 11 141.07900000000004 2.5000000000000004 2.5000000000000004 1.0000000180025095e-35 3.5000000000000004 5.5000000000000009 7.5000000000000009 97.005500000000026 440.52500000000003 1.0000000180025095e-35 5.5000000000000009 3.5000000000000004 1.5000000000000002 311.97500000000008 1.5000000000000002 2.5000000000000004 4.5000000000000009 21.500000000000004 4.5000000000000009 85.125000000000014 31.500000000000004 11.500000000000002 4.5000000000000009 1.0000000180025095e-35 12 13 445.0800000000001 14 2.5000000000000004 2.5000000000000004 5.5000000000000009 1.0000000180025095e-35 1.0000000180025095e-35 11.500000000000002 2.5000000000000004 2.5000000000000004 1.5000000000000002 1.5000000000000002 1.5000000000000002 1.5000000000000002 215.63500000000002 1.0000000180025095e-35 1.5000000000000002 1.5000000000000002 2.5000000000000004 2.5000000000000004 1.5000000000000002 1.0000000180025095e-35 8.5000000000000018 2.5000000000000004 3.5000000000000004 10.939500000000001 1044.9750000000001 15 1.0000000180025095e-35 23.500000000000004 4.5000000000000009 1.5000000000000002 8.5000000000000018 1.0000000180025095e-35 23.500000000000004 2.5000000000000004 149.97500000000002 1.5000000000000002 3.5000000000000004 2.5000000000000004 28.500000000000004 7.5000000000000009 3.5000000000000004 2.5000000000000004 3.5000000000000004 60.500000000000007 1.5000000000000002 6.5000000000000009 22.501000000000001 48.955000000000005 120.00450000000002 2.5000000000000004 5.5000000000000009 2.5000000000000004 1.5000000000000002 1.5000000000000002 19.683000000000003 1.5000000000000002 16 2.5000000000000004 8.5000000000000018 46.642000000000003 52.017000000000003 17 1.0000000180025095e-35 2.5000000000000004 1.0000000180025095e-35 445.0800000000001 5.5000000000000009 3.5000000000000004 1.5000000000000002 18 13.500000000000002 78.500000000000014 1.0000000180025095e-35 1.0000000180025095e-35 1.0000000180025095e-35 12.500000000000002 12.500000000000002 10.500000000000002 3.5000000000000004 10.500000000000002 1.5000000000000002 8.5000000000000018 2.5000000000000004 1.5000000000000002 76.995000000000019 4.5000000000000009 101.50000000000001 15.500000000000002 2.5000000000000004 19 1.0000000180025095e-35 412.20000000000005 2.5000000000000004 1.5000000000000002 992.45000000000016 471.50000000000006 171.06500000000003 1.5000000000000002 20 9.5000000000000018 2.5000000000000004 4.5000000000000009 5.5000000000000009 21 1.5000000000000002 1.5000000000000002 1.0000000180025095e-35 1.5000000000000002 1.5000000000000002 4.5000000000000009 2.5000000000000004 1.0000000180025095e-35 2.5000000000000004 2.5000000000000004 1.5000000000000002 6.5000000000000009 49.956500000000013 2.5000000000000004 5.5000000000000009 472.06000000000006 1.5000000000000002 2.5000000000000004 1.5000000000000002 3.5000000000000004 1.5000000000000002 4.5000000000000009 1.0000000180025095e-35 159.97500000000002 13.500000000000002 2.5000000000000004 2.5000000000000004 6.5000000000000009 10.500000000000002 22 3.5000000000000004 1.5000000000000002 1.5000000000000002 1.5000000000000002 2.5000000000000004 1075.5000000000002 1.5000000000000002 1.5000000000000002 1.0000000180025095e-35 125.03500000000001 1.0000000180025095e-35 1.0000000180025095e-35 18.500000000000004 52.017000000000003 26.500000000000004 1.5000000000000002 244.50000000000003 7.5000000000000009 23.500000000000004 701.20500000000004 2.5000000000000004 1000.0550000000002 844.97500000000014 4.5000000000000009 9.5000000000000018 81.500000000000014 8.5000000000000018 8.5000000000000018 11.500000000000002 32.363000000000007 26.500000000000004 2.5000000000000004 2.5000000000000004 2.5000000000000004 86.997000000000014 8.5000000000000018 37.816500000000012 4.5000000000000009 2.5000000000000004 5.5000000000000009 1.5000000000000002 1.5000000000000002 55.018000000000008 2.5000000000000004 1.5000000000000002 844.97500000000014
decision_type=2 2 2 2 2 9 9 2 2 2 2 2 2 2 9 2 2 2 2 2 2 2 2 9 2 2 2 2 2 2 2 2 2 2 9 2 2 2 2 2 2 2 2 2 2 2 2 2 2 2 2 2 2 2 2 2 2 2 2 2 2 9 2 9 2 2 2 9 9 2 2 2 2 2 2 2 2 2 2 2 2 2 2 2 2 2 2 2 2 2 2 2 2 2 2 2 9 2 2 9 2 2 1 2 2 2 2 2 2 2 2 2 2 2 2 2 2 2 2 2 2 2 2 2 2 2 2 9 9 2 9 2 2 2 2 2 2 2 2 2 2 2 2 2 2 2 2 2 2 2 2 2 2 2 2 2 9 2 2 2 2 2 2 2 2 2 2 2 2 2 2 2 2 2 2 2 2 2 2 2 2 2 2 2 2 2 2 9 2 2 2 2 9 2 2 2 2 2 2 2 1 2 2 2 2 2 2 2 2 2 2 2 2 2 2 2 2 2 2 2 1 2 2 2 2 2 2 2 2 9 2 2 2 2 9 2 2 2 2 2 2 2 2 2 2 2 2 2 2 2 2 2 2 2 2 2 2 2 2 2 2 2 2 2 1 2 2 2 2 2 2 2 2 2 2 2 2 2 2 2 2 2 2 2 2 2 2 2 2 2 2 2 2 2 2 2 2 2 2 2 2 2 2 2 2 2 2 2 2 2 2
left_child=1 2 6 4 13 10 44 14 19 28 12 70 37 31 46 16 17 65 26 20 73 128 52 79 -14 40 121 300 117 153 157 32 219 34 35 49 50 90 39 -38 57 64 43 55 82 100 62 -48 206 88 63 -52 87 54 170 74 164 59 -59 150 -51 76 134 83 -24 66 -12 216 69 199 114 -56 173 194 175 189 77 78 -21 145 81 155 195 104 120 98 174 126 129 142 91 111 96 94 95 -5 97 -93 127 118 168 113 103 156 116 115 276 -71 109 122 -85 167 141 297 -4 -106 264 -10 197 -31 262 190 -20 249 -34 -120 -23 -70 186 200 131 -91 178 188 -7 136 137 139 148 250 213 225 143 -90 -145 220 147 301 149 -139 151 152 -18 154 -30 -81 -54 183 -159 -148 177 -162 171 212 165 166 -43 -3 -37 -170 -11 -28 -112 -50 -87 -6 -86 -119 -133 -180 209 182 -182 184 -17 -108 273 -129 -61 -76 -13 -192 193 -69 -9 275 -105 211 -53 -65 251 202 -44 204 -84 -205 207 298 -209 -144 -211 286 -79 214 215 -141 -35 218 274 -2 221 222 -16 224 -224 -113 290 -228 234 230 231 233 241 -230 235 -189 237 245 -239 240 243 -233 -235 -231 -245 -237 -247 -248 -249 256 289 252 254 -254 255 -25 -27 258 -130 268 -78 -262 -57 -264 265 266 -36 -268 -177 -163 -229 272 -257 -8 -218 -1 -46 -127 -68 -137 -281 -96 -40 -284 285 -151 287 -100 -200 -136 291 -55 293 -293 -58 296 -62 -22 299 -49 -19 -147 -236 305 -305 306 -304 -179 309 310 -118
right_child=3 5 11 93 42 7 21 8 9 53 15 18 24 -15 23 30 25 27 108 61 101 22 41 33 -26 123 162 -29 29 119 -32 -33 124 67 36 45 38 -39 282 -41 -42 56 201 -45 106 -47 47 48 72 60 51 198 102 226 71 84 294 58 -60 133 295 -63 -64 68 -66 -67 278 192 85 107 -72 -73 -74 -75 75 -77 260 163 -80 80 -82 -83 203 110 176 86 -88 -89 89 130 -92 92 -94 -95 281 -97 -98 -99 99 -101 -102 -103 -104 196 105 -107 185 -109 -110 -111 172 112 -114 -115 -116 -117 308 160 125 -121 -122 -123 -124 -125 -126 277 -128 187 257 -131 -132 132 -134 -135 135 279 -138 138 -140 140 -142 -143 180 144 -146 146 159 -149 -150 284 -152 -153 -154 -155 -156 -157 -158 158 -160 -161 161 269 -164 -165 -166 -167 -168 -169 169 -171 -172 -173 -174 -175 -176 259 -178 307 179 -181 181 -183 -184 -185 -186 -187 -188 228 -190 -191 191 -193 -194 -195 -196 -197 -198 -199 288 -201 -202 -203 -204 205 -206 -207 -208 208 -210 210 -212 -213 -214 -215 -216 -217 217 -219 -220 -221 -222 -223 223 -225 -226 -227 227 270 229 239 -232 232 -234 242 302 236 -238 238 -240 -241 -242 -243 -244 244 -246 246 247 248 -250 -251 -252 -253 253 -255 -256 271 -258 -259 -260 -261 261 -263 263 -265 -266 -267 267 -269 -270 -271 -272 -273 -274 -275 -276 -277 -278 -279 -280 280 -282 -283 283 -285 -286 -287 -288 -289 -290 -291 -292 292 -294 -295 -296 -297 -298 -299 -300 -301 -302 -303 303 304 -306 -307 -308 -309 -310 -311 -312
leaf_value=-3.3273047565422234 -3.3273049819071754 -3.3273049534844152 -3.3273049304505289 -3.3273049818512694 -3.3273041553163663 -3.3273049341983336 -3.3273048381262815 -3.327304857266093 -3.3273034770739738 -3.3273048770898437 -3.3273047125195063 -3.3273038633491652 -3.3273034932226024 -3.3273035274576945 -3.3273048759203161 -3.3273048950277313 -3.3273046849913772 -3.3273038651884663 -3.3273038376529365 -3.3273045846798976 -3.327304283446467 -3.3273046259335364 -3.3273048820046438 -3.3273049291054062 -3.3273049950450426 -3.3273043949411747 -3.3273047575039283 -3.3273047413647712 -3.3273049950450426 -3.3273042903776218 -3.3273034447767174 -3.3273049269271917 -3.3273037614982028 -3.3273049140910831 -3.3273048955857076 -3.3273035481279387 -3.3273049950450426 -3.3273039380439116 -3.3273049950450426 -3.3273034719744072 -3.3273034447767174 -3.327304539653722 -3.3273035093712306 -3.3273049950450426 -3.3273049494489153 -3.3273049950450426 -3.3273036812583259 -3.3273049396783163 -3.3273041964219656 -3.3273037380707247 -3.3273037492937094 -3.3273049718200487 -3.327304963764512 -3.3273049781942996 -3.3273046849913772 -3.3273041964219656 -3.3273048161679282 -3.3273034602794005 -3.3273047565422234 -3.3273045180394041 -3.3273048274484669 -3.3273049676830397 -3.3273040648840473 -3.3273049425723786 -3.3273044167703496 -3.3273048584028024 -3.3273038237311967 -3.3273049470101701 -3.3273049025563326 -3.3273047735781387 -3.3273041247189652 -3.3273034447767174 -3.3273036385602577 -3.3273038323437985 -3.3273049950450426 -3.3273034447767174 -3.327304935943904 -3.3273048658560151 -3.3273034792271243 -3.3273036623582364 -3.3273049851074248 -3.3273048582566607 -3.327303610876895 -3.3273047770385591 -3.32730421991088 -3.3273041862093944 -3.3273049950450426 -3.3273047303650847 -3.3273047061313998 -3.3273048318589029 -3.3273041091774278 -3.3273034621954625 -3.3273038065059932 -3.3273048224474655 -3.3273034447767174 -3.3273040538107019 -3.3273048868167612 -3.3273049950450426 -3.3273047794062154 -3.32730495780637 -3.3273049245783004 -3.3273038267268844 -3.3273049276372113 -3.3273046620836322 -3.3273045992318528 -3.3273048998531278 -3.3273038560723953 -3.3273039343351356 -3.327303529470711 -3.3273046580301893 -3.3273035998035496 -3.3273044713057431 -3.327304979542359 -3.3273047625047938 -3.3273041912022072 -3.3273038323437985 -3.3273048161679282 -3.3273046259335364 -3.3273039615328255 -3.3273034675747808 -3.3273036773169657 -3.3273035401778448 -3.3273035808375009 -3.3273049950450426 -3.3273044989591782 -3.3273044876844997 -3.3273037692514831 -3.327304925955068 -3.3273049557307517 -3.3273047730405976 -3.3273049551610936 -3.3273037031547714 -3.3273049725773856 -3.3273048739303297 -3.3273048673075776 -3.3273049218760358 -3.3273049697963728 -3.3273039894655883 -3.3273049386716487 -3.3273047254331596 -3.3273048335587587 -3.327304903852788 -3.3273048957242306 -3.3273044635244737 -3.3273036948199954 -3.3273048621649002 -3.3273049205576752 -3.327303852742066 -3.3273037143886 -3.3273047670644065 -3.3273035582109847 -3.3273049950450426 -3.3273036694532858 -3.327304850353332 -3.3273039984439761 -3.3273043306443317 -3.3273048399004503 -3.3273037548303823 -3.3273049950450426 -3.3273043749377123 -3.3273039615328255 -3.3273039840004826 -3.3273041024663095 -3.3273049950450426 -3.3273045837493642 -3.327304077009051 -3.3273038168411153 -3.3273043987879944 -3.3273044369484452 -3.3273035739657444 -3.3273042949238634 -3.327304194906552 -3.327304455821277 -3.3273048950277313 -3.3273034447767174 -3.327303564028127 -3.3273035044024222 -3.3273035924213197 -3.3273046547422394 -3.3273038621566511 -3.3273048400182099 -3.3273049950450426 -3.3273035121796877 -3.3273049480672143 -3.3273041553163663 -3.3273042629738887 -3.3273045390837703 -3.3273049511617856 -3.3273038675771693 -3.32730421991088 -3.3273048012615019 -3.3273039615328255 -3.3273049868293758 -3.327304236403096 -3.3273046904309154 -3.3273047716077926 -3.3273041645441537 -3.3273042845053933 -3.3273049024917096 -3.3273048766369948 -3.3273049776194878 -3.3273034778932633 -3.3273042974242961 -3.3273039098572146 -3.327304778340868 -3.3273045661726259 -3.3273049950450426 -3.3273037736215136 -3.3273045413079716 -3.3273049950450426 -3.3273041337848617 -3.3273049014943674 -3.3273041602851752 -3.3273039098572146 -3.3273048400182099 -3.3273039343351356 -3.3273048362826234 -3.3273049051744148 -3.3273038466981348 -3.3273045949757973 -3.3273049673784003 -3.3273049412396341 -3.3273042837454581 -3.3273049338502401 -3.327304875793633 -3.3273040085106538 -3.327304961343557 -3.3273041768478708 -3.3273048715723439 -3.3273049422471579 -3.3273049634988845 -3.3273041478053762 -3.3273047844107593 -3.3273038323437985 -3.3273049809292266 -3.3273049627477858 -3.3273049913714208 -3.327304921222741 -3.3273036787794834 -3.3273049828005017 -3.3273041337848617 -3.3273046786637517 -3.3273046849913772 -3.327304838055845 -3.3273043675554823 -3.3273048608872067 -3.3273048400182099 -3.3273041212574408 -3.3273048602391011 -3.3273039840004826 -3.3273045949757973 -3.3273049652812512 -3.3273049950450426 -3.3273035924213197 -3.3273048257394229 -3.3273047442663426 -3.3273049950450426 -3.3273049882423047 -3.3273048946310992 -3.3273035380672003 -3.3273042974242961 -3.3273048262658298 -3.3273043306443317 -3.3273049950450426 -3.3273049798399263 -3.3273049767587843 -3.3273043867119023 -3.3273047676723548 -3.3273038997467692 -3.3273034599754263 -3.3273047836448164 -3.327304875793633 -3.3273041743147527 -3.327304961343557 -3.3273044524511284 -3.3273041989613077 -3.327304467953812 -3.3273049950450426 -3.3273043060368979 -3.3273041494441378 -3.3273049950450426 -3.3273038985137879 -3.3273049950450426 -3.32730421991088 -3.3273049950450426 -3.3273039380439116 -3.327304960207552 -3.3273043037091679 -3.3273046694886941 -3.3273045078178547 -3.327304958133892 -3.3273045139272863 -3.3273048400182099 -3.3273037266436853 -3.3273045902527576 -3.3273049950450426 -3.3273041912022072 -3.3273037548303823 -3.3273049181233318 -3.32730421991088 -3.3273035093712306 -3.3273043535547009 -3.3273049354193378 -3.327304973513538 -3.3273043652485352 -3.3273040514034533 -3.3273043675554823 -3.32730421991088 -3.3273049950450426 -3.3273042433997939 -3.3273044313111058
leaf_weight=0.86959326267242731 3.9466155767440778 91.073171317577362 4.816208839416503 7.8597852587699872 0.80270147323609009 39.198588609695435 46.590131342411041 50.804314076900482 4.8162088394165066 3.0770223140716544 7.1574214696884173 3.3445894718170148 3.210805892944335 2.5084421038627616 94.451206684112549 1.0368227362632847 0.66891789436340943 1.9733077883720389 9.7662012577056938 1.1371604204177885 2.0401995778083797 0.70236378908157293 19.264835357666019 150.97476875782013 0.86959326267242421 2.0736454725265503 4.1472909450531006 1.8395242094993589 0.80270147323608332 0.73580968379974399 0.73580968379974254 22.07429051399231 3.1104682087898259 64.048888385295868 47.961413025856018 1.0033768415451043 1.2374981045722946 1.4716193675994862 3.5452648401260376 1.9064159989356992 3.5452648401260367 5.3513431549072283 0.80270147323608643 1.5050652623176564 1.137160420417785 2.4749962091445923 1.9733077883720422 0.93648505210877053 1.1037145256996153 1.237498104572295 1.8729701042175317 8.9300538897514361 23.746585249900818 6.1540446281433123 0.66891789436340321 1.1037145256996153 5.2175595760345441 3.3445894718170157 0.86959326267242421 2.1739831566810612 1.2374981045722968 274.92525458335876 1.3378357887268055 156.12543654441833 4.21418273448944 20.870238304138184 1.5050652623176577 90.67182058095932 60.838082492351532 1.4047275781631463 1.9064159989356992 1.2709439992904661 1.3378357887268064 0.66891789436340232 0.90303915739059371 1.3712816834449766 11.405050098896028 0.80270147323608365 1.5050652623176572 1.9064159989356984 5.2175595760345459 1.1371604204177854 1.8729701042175282 2.1405372619628902 0.66891789436340365 0.76925557851791182 6.8229625225067139 2.7425633668899536 7.3580968379974383 13.344911992549898 0.93648505210876354 2.9766846299171448 1.0033768415451039 33.345557034015656 1.6054029464721673 0.93648505210876443 66.824897646903992 1.1037145256996153 17.793215990066535 220.24121671915054 0.73580968379974354 2.3077667355537415 112.57888162136078 19.46551072597504 1.5719570517539971 3.8128319978713989 1.638848841190337 1.2709439992904661 14.080721676349638 1.5385111570358265 0.6689178943634031 2.474996209144591 6.6891789436340332 2.00675368309021 0.90303915739059437 1.2040522098541258 5.2175595760345441 0.70236378908157204 1.0033768415451043 2.2743208408355713 0.66891789436340321 2.1739831566810608 12.575656414031981 1.5719570517539976 0.83614736795425404 1.8395242094993594 1.4381734728813169 94.584990262985229 137.16161423921585 13.779708623886107 39.867506504058838 0.80270147323608332 2.3077667355537415 2.1405372619628906 26.79016166925431 34.014474928379059 10.267889678478239 1.2374981045722955 1.8395242094993589 0.76925557851791238 4.8162088394165039 1.1371604204177854 12.007076203823091 1.170606315135956 1.0368227362632749 1.1706063151359556 11.137482941150664 1.2709439992904661 0.76925557851791371 1.1371604204177859 1.3712816834449766 0.66891789436340321 2.3077667355537415 2.5084421038627625 1.4047275781631468 0.93648505210876443 104.41808331012726 0.66891789436340221 0.9699309468269347 1.0033768415451039 3.3111435770988464 0.76925557851791371 1.1037145256996153 3.0770223140716553 3.2776976823806754 5.9868151545524597 0.83614736795425404 0.86959326267242332 1.6722947359085085 0.80270147323608387 1.0368227362632749 1.0368227362632749 0.76925557851791371 1.0368227362632749 1.1706063151359556 3.0435764193534878 1.7391865253448484 0.70236378908157326 1.371281683444977 0.86959326267242421 0.66891789436340265 1.1706063151359556 0.76925557851791371 18.763146936893463 0.80270147323608387 10.836469888687132 2.2743208408355704 126.42548203468323 0.73580968379974354 0.66891789436340332 0.80270147323608432 1.3043898940086363 4687.7431578040123 1.5719570517539967 9.5320799946784955 18.796592831611633 0.93648505210876354 0.80270147323608299 4.4817498922348005 70.938742697238922 71.406985223293304 25.050975143909454 0.66891789436340332 0.66891789436340232 3.1104682087898254 44.24891871213913 4.2810745239257804 1.1037145256996148 1.3712816834449766 0.70236378908157238 0.90303915739059459 15.518895149230955 0.86959326267242432 1.0033768415451048 1.0033768415451052 1.2709439992904661 5.5520185232162502 9.231066942214964 0.90303915739059437 2.0736454725265503 39.399263978004456 46.25567239522934 2.8429010510444637 2.5418879985809326 0.86959326267242421 1.4716193675994871 1.538511157035827 1.2040522098541258 64.249563753604889 67.761382699012756 46.021551132202148 2.8763469457626325 6.1540446281433105 0.66891789436340221 4510.6805911660194 4.8162088394165057 14.114167571067808 0.70236378908157271 1.7726324200630188 757.98431199789047 1.2040522098541249 1.6388488411903379 0.83614736795425404 7.9266770482063276 1.4047275781631468 3.4783730506896973 1.3378357887268069 1.8395242094993594 0.76925557851791371 0.76925557851791371 3.1104682087898246 60.971866071224213 0.7692555785179126 0.70236378908157349 25.418879985809326 2.2743208408355708 0.66891789436340321 68.59753006696701 101.20727741718292 18.896930515766144 1.3378357887268055 8.2945818901061994 0.70236378908157326 0.93648505210876465 38.964467346668243 25.519217669963837 2.6422256827354422 2.5084421038627625 3.0770223140716553 3.4114812612533569 0.73580968379974354 3.0435764193534851 1.1371604204177854 13.846600413322447 1.3378357887268064 1.2374981045722959 1.6722947359085081 0.90303915739059437 1.2040522098541258 1.1037145256996148 1.9398618936538694 1.3712816834449766 0.7692555785179136 0.73580968379974365 0.66891789436340321 0.73580968379974354 2.9766846299171439 2.4749962091445914 6.6891789436340332 1.1706063151359547 18.261458516120911 0.96993094682693459 3.6790484189987183 0.73580968379974365 6.0202610492706299 1.1371604204177854 0.90303915739059437 0.66891789436340321 8.7628244161605817 0.80270147323608387 2.408104419708252 0.96993094682693481 0.86959326267242421 45.753983974456787 1.0702686309814442 0.76925557851791371 1.4047275781631468 0.66891789436340332 1.4381734728813169 1.1037145256996153 1.4716193675994871
leaf_count=26 118 2723 144 235 24 1172 1393 1519 144 92 214 100 96 75 2824 31 20 59 292 34 61 21 576 4514 26 62 124 55 24 22 22 660 93 1915 1434 30 37 44 106 57 106 160 24 45 34 74 59 28 33 37 56 267 710 184 20 33 156 100 26 65 37 8220 40 4668 126 624 45 2711 1819 42 57 38 40 20 27 41 341 24 45 57 156 34 56 64 20 23 204 82 220 399 28 89 30 997 48 28 1998 33 532 6585 22 69 3366 582 47 114 49 38 421 46 20 74 200 60 27 36 156 21 30 68 20 65 376 47 25 55 43 2828 4101 412 1192 24 69 64 801 1017 307 37 55 23 144 34 359 35 31 35 333 38 23 34 41 20 69 75 42 28 3122 20 29 30 99 23 33 92 98 179 25 26 50 24 31 31 23 31 35 91 52 21 41 26 20 35 23 561 24 324 68 3780 22 20 24 39 140159 47 285 562 28 24 134 2121 2135 749 20 20 93 1323 128 33 41 21 27 464 26 30 30 38 166 276 27 62 1178 1383 85 76 26 44 46 36 1921 2026 1376 86 184 20 134865 144 422 21 53 22663 36 49 25 237 42 104 40 55 23 23 93 1823 23 21 760 68 20 2051 3026 565 40 248 21 28 1165 763 79 75 92 102 22 91 34 414 40 37 50 27 36 33 58 41 23 22 20 22 89 74 200 35 546 29 110 22 180 34 27 20 262 24 72 29 26 1368 32 23 42 20 43 33 44
internal_value=0 -0.136706 3.18197 13.1475 17.6034 -0.351408 1.90336 -0.437152 1.70195 8.84365 3.60248 19.7707 1.9293 4.72394 -0.513686 7.71534 9.90482 6.13447 21.8269 0.520454 3.53569 1.15611 2.24054 -0.551741 21.756 15.9869 14.5605 18.4146 20.1332 13.3312 2.01059 2.95897 8.89701 -0.582156 -0.41006 0.863869 -0.494137 1.47489 7.14058 16.7763 18.6537 5.98042 24.7105 22.4344 6.91875 9.27928 2.28572 6.36181 4.65457 0.750231 -0.504537 3.46944 1.53526 2.49809 9.37096 23.4559 8.81805 16.1193 23.4054 13.0693 9.59488 -0.155731 1.76621 -0.518036 2.75473 3.64905 7.9845 -0.828528 -0.549867 0.475577 5.78319 20.6151 14.4886 2.34087 24.8303 16.292 2.53846 8.2991 19.023 1.09589 6.03115 15.0443 6.68956 0.92581 16.663 -0.589188 4.32768 9.81787 0.653961 2.04649 1.3259 1.24739 2.59371 3.55203 7.11839 1.12412 2.3207 5.94963 -0.597226 0.257964 15.3374 13.9136 1.38039 2.06917 0.785485 5.94561 12.507 10.9237 24.4902 22.875 8.74417 0.313954 3.80572 10.2028 2.46107 13.0131 0.517409 23.7873 2.64728 24.5444 11.5686 20.3393 24.0739 6.63557 19.7414 9.10843 17.1838 -0.635887 0.259834 0.298537 0.996084 2.49624 8.12069 7.08239 1.61377 2.23165 3.20511 4.03723 9.13917 3.22109 6.74914 9.78284 4.43203 7.22293 16.1787 0.925352 3.52934 11.5686 12.8144 10.6062 19.0961 16.2452 20.1286 6.17381 11.1955 20.4211 1.63255 1.12224 8.72706 1.27037 21.5452 23.2571 7.55213 2.33302 11.778 13.0922 9.63079 -0.133154 18.5135 15.1258 4.06882 5.71551 17.0426 7.84039 23.1926 25.8035 23.88 15.3604 14.735 11.4592 2.78626 8.16381 15.6519 0.517307 7.11839 14.114 1.4446 -0.650648 11.3361 5.32561 17.6739 12.7272 -0.858152 0.111944 2.1297 3.93931 5.82618 2.70465 1.65055 0.373403 0.170302 27.8074 20.7089 7.84164 11.606 7.424 2.67252 3.89591 14.3177 1.75567 8.30756 2.49834 8.5318 12.3075 9.80662 13.6686 0.91155 2.89974 5.50853 1.78791 0.708042 0.998745 1.55582 5.99918 10.0079 12.3933 1.24786 5.5764 -0.666931 -0.418404 1.17905 2.30076 6.64976 1.5951 -0.718871 0.255193 2.29393 5.41958 17.55 -0.658522 0.624458 11.5881 12.2526 0.390962 3.35788 2.96699 5.15941 8.33923 11.6137 10.0695 2.21471 0.434421 0.754472 11.8751 0.66497 0.412375 7.71505 -0.0283417 0.222664 26.1451 1.7211 3.63583 8.44429 4.45577 0.214155 0.694412 1.48708 7.11839 23.3081 26.7104 10.3051 4.54113 7.46482 1.44604 3.46348 9.87963 5.37105 5.52731 17.4203 0.7451 4.87821 24.8318 1.14219 6.27276 6.83228 9.64234 3.65331 4.24331 3.44001 1.71797 0.742616 2.43067 6.02103 14.793 4.74815 4.45577 7.37321 15.2056 1.43983 6.43887 24.5266 5.9717 -0.750944 0.247503 -0.352483 9.47806 6.87856 20.1122 4.3806 5.38021 4.04695
internal_weight=0 13683.5 831.465 142.279 97.1603 12852.1 771.965 12587.1 432.823 61.4401 264.958 59.5002 182.113 34.5496 12154.3 82.8455 59.8682 36.9577 51.8746 371.383 68.0289 685.875 316.197 11997.4 4.0804 22.9104 13.9135 6.22094 22.1077 7.726 22.9773 32.0412 9.96688 11786.3 6925.21 426.034 6499.17 178.032 8.19424 3.14391 17.8267 50.1688 62.6107 36.0881 86.0897 6.68918 156.895 22.7098 20.7365 419.345 6490.98 21.974 266.029 39.3324 6.05371 34.5831 26.6898 14.2814 4.21418 10.0672 4.5152 303.354 134.185 6469 23.479 30.7368 9.86654 4861.06 6332.01 229.74 7.62566 1.93986 3.47837 61.0053 28.7635 2.94324 28.429 7.39154 2.64223 211.11 9.19762 3.98006 70.805 136.994 5.81959 6102.27 8.76282 4.8831 414.829 84.3505 176.561 175.624 71.9087 45.1185 11.773 8.79627 70.9053 4.0804 6093.51 263.554 4.21418 7.02364 261.146 148.567 133.416 6.58884 15.2848 2.67567 37.9611 23.8804 3.57871 103.716 11.773 4.71587 5.71925 2.77601 126.827 14.3817 43.3124 3.01013 3.41148 7.62566 22.3419 5.08378 3.94662 3.74594 2.14054 5829.95 369.677 330.479 58.5638 18.6963 5.35134 5.05033 132.847 93.6485 56.5905 46.3226 6.38817 39.9344 8.86316 5.08378 25.7868 9.56553 2.20743 201.913 15.5523 3.41148 4.54864 3.77939 5.01688 3.6456 2.97668 4.71587 2.20743 2.8429 128.165 22.2415 1.63885 12.1409 9.56553 7.49188 6.28783 4.74932 15.452 12.1743 6.18749 91.9428 3.47837 2.475 4.11385 5.18411 1.43817 2.14054 1.93986 25.8202 2.4081 2.07365 3.04358 2.24087 16.2213 2.60878 1.43817 20.6027 1.83952 12.4753 62.7111 5769.12 2.90979 1.57196 5.45168 2.10709 4779.99 92.2438 60.3364 20.9037 20.402 39.5665 20.101 227.064 316.699 26.5226 1.47162 49.9013 4.98344 44.9178 17.2581 12.977 2.475 13.6125 1.6054 38.7638 1.67229 4.04695 3.04358 2.0402 81.0728 17.024 7.79289 6.02026 186.361 146.961 100.706 6.25438 3.71249 3.94662 33.2787 3.47837 5674.53 958.727 122.445 76.4239 10.6692 65.7546 4715.8 155.256 28.8304 14.7162 2.475 836.281 78.2968 4.5152 1.50507 77.0928 9.3314 12.2412 7.42499 3.94662 2.60878 3.51182 31.0712 245.292 184.32 1.47162 182.849 157.43 2.74256 306.966 238.369 25.0175 21.0375 9.63242 2.74256 1.63885 117.596 78.6313 53.1121 5.15067 6.1206 4.18074 1.93986 6.45506 3.41148 60.4367 6.88985 2.10709 2.80946 2.74256 2.70912 37.0581 3.04358 2.97668 5.05033 1.50507 2.54189 1.87297 23.2449 20.2682 11.1709 27.9608 29.8003 11.5388 5.38479 1.70574 11.2378 3.2777 2.14054 2.70912 10.502 1.73919 4.38141 2.14054 4560.55 49.8678 46.8243 3.04358 2.27432 1.37128 9.23107 7.79289 6.68918
internal_count=413378 409124 24860 4254 2905 384264 23081 376342 12941 1837 7922 1779 5445 1033 363401 2477 1790 1105 1551 11104 2034 20507 9454 358710 122 685 416 186 661 231 687 958 298 352398 207057 12738 194319 5323 245 94 533 1500 1872 1079 2574 200 4691 679 620 12538 194074 657 7954 1176 181 1034 798 427 126 301 135 9070 4012 193417 702 919 295 145341 189321 6869 228 58 104 1824 860 88 850 221 79 6312 275 119 2117 4096 174 182452 262 146 12403 2522 5279 5251 2150 1349 352 263 2120 122 182190 7880 126 210 7808 4442 3989 197 457 80 1135 714 107 3101 352 141 171 83 3792 430 1295 90 102 228 668 152 118 112 64 174310 11053 9881 1751 559 160 151 3972 2800 1692 1385 191 1194 265 152 771 286 66 6037 465 102 136 113 150 109 89 141 66 85 3832 665 49 363 286 224 188 142 462 364 185 2749 104 74 123 155 43 64 58 772 72 62 91 67 485 78 43 616 55 373 1875 172491 87 47 163 63 142917 2758 1804 625 610 1183 601 6789 9469 793 44 1492 149 1343 516 388 74 407 48 1159 50 121 91 61 2424 509 233 180 5572 4394 3011 187 111 118 995 104 169663 28665 3661 2285 319 1966 140998 4642 862 440 74 25004 2341 135 45 2305 279 366 222 118 78 105 929 7334 5511 44 5467 4707 82 9178 7127 748 629 288 82 49 3516 2351 1588 154 183 125 58 193 102 1807 206 63 84 82 81 1108 91 89 151 45 76 56 695 606 334 836 891 345 161 51 336 98 64 81 314 52 131 64 136356 1491 1400 91 68 41 276 233 200
cat_boundaries=0 563 1065 1612 2182 2734 3304 3875 4449 5005 5476 6047 6048 6615 7185 7688 8244 8819 9394 9395 9396 9967 10539 10540
cat_threshold=0 0 0 0 0 0 0 0 0 0 0 0 0 0 0 0 0 0 0 0 0 0 0 0 0 0 0 0 0 0 0 0 0 0 0 0 0 0 0 0 0 0 0 0 0 0 0 0 0 0 0 0 0 0 0 0 0 0 0 0 0 0 0 0 0 0 0 0 0 0 0 0 0 0 0 0 0 0 0 0 0 0 0 0 0 0 0 131072 0 0 0 134217728 0 0 0 0 0 0 0 0 0 0 0 0 0 0 0 0 0 524288 0 0 0 0 0 0 0 0 0 0 0 0 0 0 0 0 0 0 0 0 0 0 0 0 0 134217728 0 0 0 0 0 0 0 0 0 0 2097152 0 0 0 0 0 0 0 0 0 0 0 0 0 0 0 0 0 0 128 0 2097152 0 0 0 0 0 0 0 0 0 65536 0 0 0 0 536870912 0 16777216 0 0 0 0 64 0 0 0 0 0 0 0 0 0 0 0 33554432 0 0 0 0 0 0 0 0 0 0 0 0 0 0 0 0 0 0 0 0 0 0 0 0 0 0 0 0 0 0 0 0 0 0 0 0 0 0 0 0 0 0 0 0 0 0 0 0 0 0 0 0 0 0 0 0 0 0 0 0 0 0 0 0 0 0 0 0 0 0 0 0 0 0 0 0 0 0 0 1024 4 0 0 0 0 0 0 0 0 0 2147483648 0 0 0 134217728 0 0 0 0 0 0 0 0 0 0 0 0 536870912 0 0 134217728 0 64 0 0 0 0 0 0 0 0 0 0 0 0 0 0 0 0 0 0 0 0 0 0 0 0 268435456 0 0 0 0 0 0 0 0 0 0 0 0 0 0 0 0 0 0 0 0 0 0 0 0 0 0 0 0 0 0 512 0 0 0 0 0 0 0 0 0 0 0 0 0 0 0 0 0 0 33554432 0 0 0 0 0 0 0 0 0 0 0 0 0 0 0 0 0 0 0 0 0 0 0 0 0 0 0 0 0 0 0 0 4194304 0 0 8388608 0 0 0 0 0 0 0 0 0 0 0 1024 0 0 0 0 0 0 0 0 16 0 0 0 0 0 0 0 0 0 0 34078720 0 0 0 0 0 0 0 0 0 0 0 0 8388608 0 0 0 0 0 0 0 0 0 0 0 0 0 0 0 0 0 0 0 0 0 0 0 0 0 0 0 0 0 0 0 0 0 0 0 0 0 0 0 0 0 0 0 0 0 0 0 0 0 0 0 0 0 0 0 0 0 2147483648 0 0 0 0 0 0 0 0 0 0 0 0 0 0 0 0 0 0 0 0 0 0 0 0 0 0 0 0 0 0 0 0 0 32768 0 0 0 0 0 0 0 0 0 0 0 0 0 0 0 0 0 0 0 0 0 0 0 0 0 0 0 0 0 0 0 0 0 0 0 0 0 0 0 0 0 0 0 0 0 0 0 0 0 0 0 0 0 0 0 0 0 0 0 0 0 16777216 0 0 0 0 0 0 0 0 65536 0 0 0 0 0 0 0 0 0 0 16777216 67108864 0 0 0 0 131072 0 0 0 0 0 0 0 0 0 0 0 0 0 0 0 0 0 0 0 0 0 0 0 0 0 0 0 0 0 0 0 0 134217728 0 0 0 0 0 0 0 0 0 0 0 0 0 0 0 0 0 0 8192 16777216 0 0 0 0 0 0 0 0 0 0 0 0 0 0 0 131072 0 0 0 0 0 0 0 0 128 0 2097152 0 0 0 0 0 0 32768 0 0 0 0 0 0 1048576 0 0 0 0 0 0 0 0 0 0 0 0 0 0 0 0 256 0 0 0 0 0 65536 0 0 0 0 0 0 0 0 0 0 0 0 0 0 0 0 0 0 0 0 0 0 0 0 0 0 0 0 0 0 0 0 0 0 0 0 0 0 0 0 0 0 0 0 0 0 0 0 0 0 0 0 0 0 0 0 0 0 0 0 0 0 0 0 0 0 0 0 524288 0 0 0 0 0 0 0 0 4 0 0 0 0 0 0 0 0 0 0 0 0 0 0 0 0 0 0 2 0 0 0 0 0 0 0 536870912 0 0 0 0 0 0 0 0 0 0 0 0 0 0 0 0 0 4194304 0 0 256 0 0 0 0 0 0 0 0 268435456 0 0 0 0 0 0 0 0 0 0 2 0 0 0 0 0 0 0 0 0 0 0 0 0 0 0 0 0 0 0 0 0 0 0 0 0 0 0 0 0 0 0 0 0 0 0 0 0 0 0 0 0 0 0 0 0 0 0 0 0 0 0 0 0 0 0 0 0 0 0 0 0 0 0 0 0 0 0 0 0 0 0 4194304 0 0 0 0 0 0 0 0 0 256 0 0 0 0 0 0 0 0 0 0 0 0 0 16 0 0 0 0 0 0 0 0 0 0 0 0 0 0 0 0 0 0 0 0 0 0 0 8388608 0 0 0 0 0 0 0 0 0 0 0 0 0 0 0 0 0 0 0 0 0 0 0 0 0 0 0 0 0 0 1073741824 0 0 0 0 0 0 0 0 0 0 0 0 0 0 0 0 0 0 0 0 0 0 0 0 0 0 0 0 0 0 0 0 0 0 0 0 0 0 0 0 0 0 0 0 0 0 0 0 0 0 0 0 0 0 0 0 1024 0 0 0 0 0 0 0 0 0 0 0 0 0 0 0 0 0 0 0 0 0 0 0 0 0 0 0 0 0 2 0 0 0 8192 0 0 0 0 0 0 0 0 0 0 0 0 0 0 0 0 0 0 0 0 0 0 0 0 0 0 0 0 1 0 0 0 8 0 0 0 0 0 0 0 0 0 0 0 0 0 0 0 0 0 0 0 0 0 0 0 0 0 0 0 0 0 0 0 0 0 0 0 0 0 0 0 0 0 0 0 0 0 0 0 0 0 0 0 0 0 134217728 0 0 0 0 0 0 0 0 0 8192 0 0 0 0 67108864 0 0 0 0 0 2097152 0 0 0 0 0 0 0 0 0 0 0 0 0 0 0 0 0 0 0 0 0 0 0 0 0 0 0 0 0 0 0 0 0 0 0 0 0 0 0 1048576 0 0 0 1 0 0 0 0 0 0 0 0 0 0 0 0 0 0 0 0 0 0 0 0 0 0 0 0 0 0 0 0 0 0 0 0 0 0 0 0 0 0 0 0 0 0 0 0 0 0 0 0 0 0 0 0 0 0 0 0 0 0 0 0 0 2097152 0 2048 0 0 0 0 0 0 0 0 0 0 0 0 0 0 0 0 0 2 0 0 0 0 0 0 0 0 67108864 0 0 0 0 0 0 0 0 0 0 0 0 0 0 2147483648 0 0 2 32768 0 0 0 0 0 0 0 0 0 0 0 0 0 16 0 0 0 0 0 0 0 0 8388608 0 0 0 0 0 0 0 0 0 0 0 0 0 0 0 0 0 0 0 268435456 0 0 0 0 0 0 0 0 0 0 0 0 0 0 0 0 0 0 0 32 0 0 0 0 0 4096 0 0 0 0 0 0 0 64 0 0 0 0 0 64 0 2147483648 0 0 0 0 0 0 0 0 0 0 0 0 0 0 0 0 0 0 0 0 0 0 0 0 0 0 0 0 0 0 0 0 0 0 0 0 0 0 0 0 0 0 0 0 0 0 0 32 0 0 0 0 0 0 2147483648 0 0 0 0 0 0 0 0 4 0 0 0 0 0 0 0 0 0 0 0 0 0 0 0 0 0 0 0 0 0 0 0 0 0 0 0 0 0 0 0 0 0 0 0 0 0 0 0 0 536870912 0 0 4 256 0 0 0 0 0 0 0 0 0 0 0 0 0 0 0 0 0 0 0 0 0 0 0 0 0 0 0 0 0 0 0 0 0 0 0 0 0 0 0 0 0 0 0 0 0 0 0 16 0 0 0 0 0 0 0 0 0 0 0 0 0 0 0 0 0 0 0 0 0 0 0 0 0 0 0 0 0 0 0 0 0 16777216 0 0 0 0 0 0 0 0 0 0 0 0 0 0 0 0 0 0 8192 0 0 0 0 0 0 0 0 0 0 0 134217728 134217728 0 0 0 0 33554432 0 0 524288 0 0 0 536870912 0 0 0 0 0 0 0 0 0 0 0 0 0 0 0 0 0 0 0 0 0 0 0 0 0 0 0 0 0 0 0 0 0 0 0 0 0 0 0 0 0 0 0 0 0 0 0 0 0 0 0 0 0 0 0 0 0 0 0 0 0 0 0 0 0 0 0 0 0 0 0 0 256 2 0 0 0 0 0 0 0 0 0 0 0 0 0 0 0 0 0 0 0 0 0 0 0 0 0 0 0 0 0 0 0 0 0 0 0 0 0 0 0 0 0 0 8192 0 0 0 0 0 0 4 0 0 0 0 0 0 0 0 0 0 0 0 0 0 0 0 0 0 0 0 0 0 0 524288 0 0 0 0 4 0 0 0 0 0 0 0 0 0 0 0 0 0 1048576 0 0 0 0 0 0 0 0 0 0 0 0 0 0 0 0 0 0 0 0 0 0 64 0 0 0 0 0 0 0 0 0 0 0 0 0 0 256 0 0 0 0 65536 0 0 0 0 0 0 0 0 0 0 0 0 0 0 0 0 0 0 0 0 0 0 0 0 0 0 0 1024 0 0 0 0 0 0 0 0 0 0 0 0 0 0 0 0 0 0 0 0 0 0 0 0 0 0 0 0 0 0 0 0 0 0 0 0 0 0 0 0 1 0 0 0 0 0 0 256 0 0 0 0 0 0 0 0 0 0 0 0 0 0 0 0 0 0 0 0 1048576 0 0 0 0 0 0 0 0 0 0 0 0 0 0 0 0 0 32768 0 0 0 0 0 0 0 0 0 0 0 0 0 0 0 0 0 0 0 0 0 0 0 0 0 0 0 0 0 0 0 0 0 0 0 0 0 0 0 0 0 0 0 0 0 0 0 0 0 0 0 0 0 0 0 0 0 0 0 268435456 8 0 0 0 0 0 0 0 0 0 1024 0 1024 0 0 0 0 0 0 0 0 0 0 0 0 0 0 0 0 0 0 0 0 0 0 0 0 0 0 0 131072 0 0 0 0 0 0 0 0 0 0 0 0 0 0 0 0 16384 524288 0 0 0 0 0 0 0 0 0 0 0 0 0 0 0 0 0 0 0 0 0 0 0 0 0 0 0 0 0 0 0 0 0 0 0 0 0 0 0 0 0 0 0 0 0 0 0 0 0 0 0 0 0 0 0 0 0 0 0 262176 0 0 0 0 0 0 0 0 0 0 0 0 0 0 0 0 8388608 0 0 0 0 0 0 0 0 0 8 0 524288 0 0 0 0 0 0 0 0 0 0 0 0 0 0 0 0 0 0 0 0 0 0 0 0 0 0 0 0 0 0 0 0 0 0 0 0 0 0 0 0 8192 0 0 0 0 0 0 0 0 0 0 16777216 0 0 0 0 0 0 0 0 0 0 0 0 0 0 0 0 512 0 0 0 0 0 64 0 0 0 0 0 0 0 0 0 0 0 0 8192 0 0 0 0 0 0 0 0 262144 0 0 0 0 0 0 0 0 0 0 0 0 0 0 0 0 0 0 0 0 0 0 0 0 0 0 0 0 0 0 0 0 0 0 0 0 0 0 0 0 0 0 0 0 0 0 0 0 1048576 0 0 0 0 65536 0 0 0 0 0 0 0 0 0 0 0 0 0 0 6144 0 0 0 0 0 0 268435456 0 0 0 0 0 0 0 0 0 0 0 0 0 0 0 0 0 0 0 0 0 0 0 0 0 0 0 0 0 0 0 0 0 0 0 0 0 0 0 0 0 0 0 0 0 0 0 0 0 0 0 0 512 0 0 0 1024 0 0 0 0 0 0 0 0 0 0 0 0 0 0 0 0 0 0 0 1048576 2048 0 0 0 0 0 0 0 0 0 0 262144 0 0 131072 0 0 0 0 0 0 0 0 0 0 0 0 0 0 0 0 0 0 0 0 0 0 0 0 0 0 0 0 0 0 0 0 0 0 0 0 2147483648 0 256 0 0 0 0 0 0 0 0 0 0 0 0 0 0 0 0 0 0 0 0 0 0 0 0 0 0 0 0 0 0 0 0 0 0 0 0 0 0 0 0 0 0 0 0 0 0 0 0 0 0 0 0 0 0 0 0 0 67108864 0 0 8192 0 0 0 0 0 0 0 0 0 0 0 0 0 0 0 0 67108864 0 0 0 0 0 0 0 0 0 0 0 0 0 0 0 0 0 0 0 0 0 0 0 0 0 0 0 0 0 0 0 2048 0 0 0 0 0 0 0 0 0 0 0 0 0 0 0 0 0 0 0 0 0 0 0 0 0 0 0 0 0 0 0 0 0 0 0 0 0 0 0 0 0 0 0 0 0 0 0 0 8 0 0 0 0 0 0 0 0 0 0 0 0 0 0 0 0 0 0 0 0 0 0 0 0 0 0 0 0 0 0 0 0 0 0 0 0 0 0 0 0 0 0 0 0 0 0 0 0 0 0 0 0 0 0 0 0 0 0 0 0 0 16777216 0 0 0 0 0 0 0 0 65536 0 0 0 0 0 0 0 0 0 0 16777216 0 0 0 0 0 0 0 0 0 0 0 0 0 0 0 0 0 0 0 0 0 0 0 0 0 0 0 0 0 0 262144 0 0 0 0 0 0 0 0 32768 0 0 0 0 0 0 0 0 0 0 0 0 0 0 0 0 0 0 0 0 0 0 0 0 0 0 0 0 0 0 0 0 0 0 0 0 0 0 0 0 0 0 0 0 0 0 0 0 0 0 0 0 0 0 0 0 0 0 0 0 0 0 0 0 0 0 0 0 0 0 0 0 0 0 0 0 256 0 0 0 0 0 0 0 0 0 0 0 0 0 0 0 0 0 0 0 0 0 0 0 0 0 0 0 0 0 0 0 0 0 0 0 0 0 0 0 0 1 0 0 0 0 0 2097152 0 0 0 0 0 0 0 0 0 0 0 0 0 0 0 0 0 0 0 0 0 0 0 0 0 0 0 0 0 0 0 0 0 0 0 0 0 0 0 0 0 0 0 0 0 0 0 0 0 0 0 0 0 0 0 2 0 0 0 0 0 0 0 0 0 0 0 0 0 64 0 0 0 0 0 0 0 0 0 0 0 0 0 0 0 0 0 0 0 0 0 0 0 0 0 0 0 0 0 0 0 0 0 0 0 0 0 0 0 0 0 0 0 0 0 0 0 0 0 0 0 0 0 2147483648 0 0 0 0 0 0 0 0 0 0 0 0 0 0 0 0 0 0 0 0 0 0 0 0 0 0 0 0 0 0 0 0 4 0 0 0 0 0 0 0 0 0 0 0 0 0 0 0 0 0 0 0 0 0 0 0 0 0 0 0 0 0 256 0 0 0 0 0 0 0 0 0 0 0 0 0 0 0 0 0 0 0 0 0 0 0 0 0 0 0 0 0 0 0 0 0 0 0 0 0 0 0 0 0 0 0 0 0 524288 0 0 0 0 0 0 0 0 0 0 0 0 0 0 0 0 0 0 0 0 0 0 0 0 0 0 0 0 0 0 67108864 0 0 0 0 0 0 0 0 0 0 0 0 0 0 0 0 0 0 0 0 0 0 0 0 0 0 0 0 0 0 0 0 0 0 0 0 0 0 0 0 0 0 0 0 0 0 0 0 0 0 0 0 0 0 0 0 0 0 0 524288 0 0 0 0 0 0 0 0 0 0 0 0 0 0 0 0 0 0 0 0 0 0 0 0 0 0 0 0 0 0 0 0 0 0 0 0 0 0 0 0 0 0 0 0 0 0 0 0 0 0 0 0 1048576 0 0 0 0 0 0 0 0 0 0 0 0 0 0 0 0 0 0 0 0 0 0 0 0 0 0 0 0 0 0 0 0 0 0 0 0 0 0 0 8 0 0 0 0 0 0 0 0 0 0 1073741824 0 256 0 0 0 0 0 0 0 0 0 0 0 0 0 0 134217728 0 0 0 0 0 0 0 0 0 0 0 0 0 0 0 0 0 0 0 0 0 0 0 0 0 0 0 8 0 0 0 0 0 0 0 0 0 0 0 0 0 0 0 0 0 0 0 0 0 0 0 0 0 0 0 0 0 0 0 0 0 256 0 0 0 0 0 0 0 0 0 0 0 0 0 0 0 0 0 0 0 0 0 65536 0 0 0 0 0 0 0 0 0 0 0 0 0 0 0 536870912 0 0 0 0 0 0 0 0 0 0 0 0 0 0 0 0 2 0 2097152 0 256 0 0 0 0 0 0 0 0 0 0 0 0 0 0 0 0 0 0 0 0 8192 0 0 0 0 0 0 0 0 0 0 0 0 1073741952 0 0 0 0 0 0 0 67108864 1024 0 0 0 0 0 0 0 0 16777216 0 0 0 0 0 0 0 8 0 0 0 0 0 0 0 0 0 0 0 2147483648 0 0 0 0 0 0 0 0 0 0 0 0 0 0 0 0 0 0 0 0 0 0 0 0 0 0 0 0 0 0 524288 0 0 0 0 0 0 0 0 4 0 0 0 0 0 0 0 0 0 0 0 0 0 0 0 0 0 0 0 0 0 0 0 0 1048576 0 8 0 0 0 0 0 0 0 0 0 0 0 0 65536 0 0 0 0 0 0 0 0 0 0 0 0 0 0 0 0 0 0 0 0 0 0 0 0 0 64 0 0 0 0 0 0 0 0 0 0 0 0 0 0 0 0 0 0 0 32 0 0 0 0 0 0 0 0 0 0 0 0 0 0 0 0 0 0 0 0 0 0 0 0 0 536870912 0 0 0 0 0 0 0 0 0 0 0 0 0 0 0 0 0 0 0 0 0 0 0 0 0 0 0 0 0 0 0 0 256 0 0 65536 0 0 0 0 0 0 0 0 0 0 0 0 0 0 0 0 0 0 0 0 0 0 0 0 0 0 0 0 0 64 0 0 0 0 0 0 0 0 0 0 0 0 0 0 0 0 0 0 0 0 0 0 0 0 0 0 0 0 0 0 0 0 0 0 0 0 0 0 1024 0 0 0 0 0 0 0 0 0 0 0 0 0 0 0 0 0 0 0 0 0 0 0 0 0 0 0 0 0 0 0 0 0 0 0 0 0 0 0 0 0 0 0 0 0 0 0 0 0 0 0 0 0 268435456 0 0 0 0 0 2147483648 0 8388608 0 0 0 0 0 0 0 0 0 0 0 0 0 0 0 0 0 0 1 0 0 0 0 0 0 0 0 0 0 0 0 0 0 0 0 0 0 0 0 0 0 0 0 0 0 0 0 0 0 0 262144 0 0 0 0 0 0 0 0 0 0 0 0 0 0 0 0 33554432 0 0 0 0 0 0 0 0 0 0 0 0 0 0 0 0 0 0 0 0 0 0 0 32768 0 0 0 0 0 0 0 0 0 0 0 0 0 0 0 0 0 0 0 0 0 0 2147483648 0 0 0 0 0 0 0 0 0 0 0 0 0 0 0 1073741824 0 0 0 0 0 0 0 0 0 0 0 0 0 64 0 0 0 0 0 0 0 0 0 0 0 0 0 0 0 0 0 0 0 0 0 0 0 0 0 0 0 0 0 0 0 0 32 0 0 0 0 0 0 0 0 0 0 0 67108864 0 0 0 0 0 2 0 0 0 0 0 0 0 0 0 0 0 0 0 0 0 0 0 0 0 0 0 0 0 0 0 0 0 0 0 0 0 0 0 0 0 0 0 0 0 0 0 0 0 0 0 0 0 0 0 0 0 0 0 0 0 0 0 0 0 0 0 0 0 0 0 0 0 0 0 0 0 0 0 0 0 0 0 0 0 0 0 0 0 0 0 0 0 0 0 0 0 0 0 0 0 0 0 0 0 0 0 0 0 0 0 0 0 0 32768 0 0 0 0 0 0 0 0 0 0 0 0 0 0 0 0 0 0 0 0 0 0 0 0 0 0 0 128 0 4194304 0 0 0 0 0 0 0 0 0 0 0 0 9437184 0 0 0 0 0 0 0 0 0 0 0 0 128 0 0 0 0 0 0 0 0 0 0 0 0 0 0 0 0 0 0 0 0 0 0 524288 0 0 0 0 0 0 32768 0 0 0 0 0 0 0 0 0 0 0 0 0 0 0 0 0 0 0 0 64 0 0 0 0 0 2147483648 0 0 0 0 0 0 0 0 0 0 0 0 0 0 0 0 0 0 0 0 8 0 0 0 0 0 0 0 2097152 0 64 0 0 0 0 0 0 0 0 0 0 0 0 0 0 0 0 0 0 0 0 0 0 2 0 0 0 0 0 0 32768 0 0 0 0 0 0 0 0 0 0 0 0 0 0 0 0 0 0 0 0 0 0 0 0 0 0 0 0 0 32768 0 0 1073741824 0 0 0 0 0 0 0 0 0 0 0 0 0 0 0 0 0 0 0 0 0 0 0 0 0 0 0 0 0 0 0 0 0 0 0 512 0 0 0 0 0 0 0 4096 0 0 32768 0 0 0 0 0 0 0 0 0 0 0 0 0 0 16777216 0 0 0 0 0 0 0 0 65536 0 0 0 0 0 0 0 0 0 0 0 0 0 0 0 0 0 0 0 0 0 0 0 0 0 0 0 0 0 0 0 0 0 0 0 0 0 0 0 0 0 0 0 0 0 0 0 0 0 0 0 0 0 0 0 0 33554432 0 8388608 0 0 0 0 0 0 0 0 0 0 0 0 0 0 0 0 0 0 0 0 0 0 0 0 0 0 0 134217728 0 0 0 0 0 0 0 0 0 0 0 0 16384 0 0 0 2147483648 0 0 0 0 0 0 0 0 0 0 0 0 0 0 0 0 0 0 0 0 0 0 0 0 0 0 0 0 0 0 0 0 0 0 0 0 0 0 65536 0 0 0 8192 0 0 0 0 0 0 0 128 0 0 0 0 0 0 0 0 0 0 0 0 0 0 0 0 0 0 0 0 0 0 0 0 0 0 0 0 0 134217728 0 0 0 0 0 0 0 0 32 0 0 0 0 0 0 0 0 0 0 0 0 0 0 0 0 0 0 0 0 0 0 0 0 0 0 0 0 2048 0 0 0 0 0 0 0 2 0 0 0 0 0 0 0 0 0 0 0 0 0 0 0 2147483648 0 0 0 0 0 0 0 0 0 4194304 0 0 0 0 128 0 0 0 0 0 0 0 0 0 65536 0 0 0 0 0 0 0 0 0 0 0 0 0 0 0 0 0 0 0 0 0 0 0 0 0 0 4194304 0 0 0 0 0 0 0 0 0 0 0 0 0 0 0 0 0 0 0 0 0 0 8192 4194304 0 0 0 0 0 1024 0 0 0 0 0 1024 0 0 0 0 0 0 0 0 0 0 0 0 0 0 0 0 0 0 0 0 0 0 0 0 0 0 0 0 0 0 0 0 0 0 0 0 0 0 0 0 0 0 0 0 0 0 0 0 0 0 0 0 0 0 0 0 0 0 0 0 0 0 0 0 0 0 0 0 0 0 0 0 0 32 0 0 0 0 0 0 0 0 0 0 0 0 0 0 0 0 262144 0 0 0 0 0 0 0 0 0 0 0 0 512 0 0 0 0 0 0 0 0 0 0 0 0 0 0 0 0 0 0 0 0 0 0 0 0 0 134217728 0 0 2 0 0 0 0 0 0 0 0 0 0 0 0 0 0 0 0 4194304 0 0 0 0 0 0 0 0 0 0 0 0 0 0 0 0 0 0 0 0 0 0 0 0 0 0 0 0 0 0 0 0 0 0 0 0 0 0 0 0 0 0 0 0 0 0 0 0 0 0 0 0 0 0 0 0 0 0 0 0 0 0 0 0 0 0 0 0 0 0 0 0 0 0 0 0 0 0 0 0 0 0 0 0 0 0 0 0 0 0 0 0 0 0 0 0 0 0 0 0 0 0 0 0 0 0 0 0 0 0 0 0 0 0 0 0 0 0 0 0 0 0 0 0 0 0 0 0 0 0 0 0 0 0 0 0 0 0 0 0 0 0 0 0 0 0 0 0 0 0 0 0 0 0 0 0 0 0 0 0 0 0 0 0 0 0 0 0 0 0 0 0 0 0 0 0 0 0 0 0 0 0 0 0 0 0 0 0 0 0 0 0 0 0 0 0 0 0 0 0 0 0 0 0 0 0 0 0 0 0 0 0 0 0 0 0 0 0 0 0 0 0 0 0 0 0 0 0 0 0 0 0 0 0 0 0 0 0 0 0 0 0 0 0 0 0 0 0 0 0 0 0 0 0 0 0 0 0 0 0 0 0 0 0 0 0 0 0 0 0 0 0 0 0 0 0 0 0 0 0 0 0 0 0 0 0 0 0 0 0 0 0 0 0 0 0 0 0 0 0 0 0 0 0 0 0 0 0 0 0 0 0 0 0 0 0 0 0 0 0 0 0 0 0 0 0 0 0 0 0 0 0 0 0 0 0 0 0 0 0 0 0 0 0 0 0 0 0 0 0 0 0 0 0 0 0 0 0 0 0 0 0 0 0 0 0 0 0 0 0 0 0 0 0 0 0 0 0 0 0 0 0 0 0 0 0 0 0 0 0 0 0 0 0 0 0 0 0 0 0 0 0 0 0 0 0 0 0 0 0 0 0 0 0 0 0 0 0 0 0 0 0 0 0 0 0 0 0 0 0 0 0 0 0 0 0 0 0 0 0 0 0 0 0 0 0 0 0 0 0 0 0 0 0 0 0 0 0 0 0 0 0 0 0 0 0 0 0 0 0 8388608 0 0 0 0 0 0 0 0 0 0 0 0 0 0 0 0 0 0 0 0 0 0 0 0 0 0 0 0 0 0 0 0 0 0 0 0 0 0 0 0 0 0 0 0 0 0 0 0 0 0 0 0 0 0 0 0 0 0 0 0 0 0 0 0 0 0 0 0 0 0 512 0 0 0 16777216 0 0 0 0 0 0 0 0 0 0 0 0 524288 0 0 0 0 0 0 0 0 0 0 0 0 0 0 0 0 64 0 0 0 0 0 0 0 0 0 0 0 0 0 0 8192 0 0 0 0 0 1073741824 0 0 33554432 0 0 0 0 0 0 0 0 0 0 0 0 0 0 0 0 0 0 0 0 0 0 0 0 0 0 0 0 0 0 0 0 0 0 0 0 0 0 0 0 0 0 0 0 0 0 536870912 0 0 0 0 0 0 0 0 0 0 0 0 8 0 0 0 0 0 0 0 0 0 0 0 0 0 0 0 0 0 0 0 0 0 0 0 0 0 0 0 0 0 0 0 0 0 0 0 0 0 0 0 0 0 0 0 0 0 0 0 0 0 0 0 0 0 0 0 0 0 0 0 0 0 0 0 0 2097152 0 0 0 0 0 0 0 0 4195328 0 0 0 0 0 0 0 0 8388608 0 0 0 0 0 0 0 0 0 0 0 0 16777216 0 0 0 0 0 0 0 64 0 0 0 268435456 0 0 0 0 0 0 0 0 0 0 0 0 0 0 0 0 0 0 0 0 0 0 0 0 0 0 0 0 0 0 0 0 0 0 16777216 0 0 0 0 0 0 0 0 0 0 0 0 0 0 0 0 0 0 128 0 0 0 0 0 0 0 0 0 0 0 0 0 0 1024 0 0 0 0 0 0 0 0 0 0 0 0 0 0 0 0 0 0 0 0 0 0 0 2097152 0 0 0 32 0 0 0 0 0 0 0 0 0 0 0 0 0 0 0 0 0 0 0 0 2 0 0 0 0 0 0 0 0 0 0 0 0 0 0 0 0 0 0 0 0 0 0 0 0 0 0 0 0 0 0 0 0 0 0 0 0 0 32768 0 0 0 0 0 0 0 0 0 0 0 0 0 0 0 0 0 0 0 0 0 0 0 0 0 0 0 0 0 0 268435456 0 0 0 0 0 0 0 0 0 0 0 0 0 0 0 0 0 0 0 0 0 0 0 0 0 0 0 0 0 0 0 0 0 16777216 0 0 0 0 0 0 0 0 0 0 0 0 0 0 2147483648 0 0 2048 0 0 0 0 0 0 0 0 0 0 0 0 0 0 0 0 0 0 2 0 0 0 0 0 0 0 0 0 0 0 1048576 0 0 0 268435456 3 0 0 0 0 0 0 0 0 0 0 0 0 0 0 0 0 0 0 0 0 0 0 0 0 0 0 0 0 0 0 0 0 0 0 0 0 0 0 0 0 0 0 0 0 0 0 0 0 0 0 0 0 0 0 0 0 0 0 0 0 0 0 0 0 0 0 0 0 0 0 0 0 0 0 0 0 0 0 0 0 0 0 0 0 0 0 0 0 0 0 0 0 0 0 0 1073741824 0 0 0 0 0 0 1024 0 0 0 0 0 0 0 0 0 0 0 0 0 0 0 0 0 0 536870912 0 0 0 0 128 0 0 0 0 0 0 0 0 512 0 0 0 0 0 0 0 0 0 0 0 0 0 1024 0 0 0 0 0 0 131072 0 0 0 0 0 0 0 0 0 0 0 0 0 0 0 0 0 0 0 0 0 0 0 0 0 0 0 0 0 0 0 0 0 0 0 1073741824 0 0 0 0 0 0 0 0 0 0 0 0 0 0 0 0 0 0 0 0 0 0 134217728 0 0 0 0 0 0 0 0 0 0 0 0 0 0 0 0 128 0 0 0 0 0 0 1 0 0 0 0 0 0 268435456 0 0 0 0 0 0 0 128 0 0 0 0 0 0 0 0 0 0 33554432 0 0 0 0 0 0 0 0 0 0 0 0 0 512 0 0 0 8192 0 0 0 0 0 0 0 0 0 0 0 0 0 0 0 0 0 0 0 0 0 0 0 0 0 0 262144 0 0 0 0 0 2048 0 0 0 0 0 0 16 0 0 0 0 0 33554432 0 0 0 0 0 0 0 0 0 0 0 0 0 0 0 0 0 0 0 0 0 0 0 0 0 0 0 0 0 0 0 0 0 0 0 0 0 0 0 0 0 0 0 0 0 0 0 0 0 0 0 0 0 0 0 0 1073741824 0 0 0 0 0 0 0 256 0 0 0 0 0 0 0 0 0 0 0 0 0 0 0 0 0 0 0 0 0 0 0 0 0 0 0 0 0 0 0 0 0 0 0 0 0 0 0 0 0 0 0 0 268566528 0 0 0 0 0 524288 0 0 0 0 0 0 0 0 0 0 0 0 0 0 0 0 0 0 0 0 0 0 0 0 0 0 0 1024 0 0 0 0 0 0 0 0 0 0 0 0 0 0 0 0 0 0 0 0 0 0 0 0 0 8192 0 0 0 0 0 0 0 0 0 0 0 0 0 0 0 0 0 1024 64 0 0 0 0 0 0 0 0 0 0 0 0 1073741824 0 0 0 0 0 0 0 0 0 0 0 0 0 0 0 0 0 0 0 0 0 0 0 0 0 0 0 0 8192 0 0 0 0 0 32 0 0 0 0 0 0 0 0 0 0 0 0 0 0 0 0 0 0 0 0 0 0 0 0 0 0 0 0 0 0 0 0 32768 4194304 0 0 0 0 0 0 0 0 0 0 0 16 0 0 0 0 0 0 0 0 0 0 0 0 0 0 0 0 0 0 0 0 0 0 0 0 0 0 0 0 512 0 0 0 0 0 2097152 0 0 0 0 0 1048576 0 0 0 0 0 0 0 0 0 0 0 0 1024 0 0 0 0 0 0 0 0 0 0 0 0 0 0 0 0 0 0 0 0 0 0 0 0 0 0 0 0 0 0 0 0 0 0 0 0 0 0 0 0 0 0 0 0 0 8388608 0 0 0 0 0 0 0 0 0 0 0 512 0 0 0 0 0 0 64 0 0 0 0 0 0 0 0 0 0 0 0 0 0 0 0 0 0 0 0 0 0 0 0 0 0 0 67108864 0 0 0 0 0 0 0 0 0 0 0 0 0 0 0 0 0 0 0 0 0 0 0 0 0 0 0 0 0 0 0 0 128 0 0 0 0 0 0 0 0 0 0 0 2 0 0 0 0 0 0 0 0 0 0 0 0 0 0 0 0 0 0 0 0 0 0 0 0 0 0 0 0 0 0 0 0 0 0 0 0 0 0 0 0 0 0 0 0 0 0 0 0 0 0 0 0 0 0 0 16777216 0 0 268435456 0 0 0 0 0 0 0 0 0 2048 0 0 0 0 0 0 0 0 0 0 0 0 0 0 0 0 0 0 0 0 0 0 0 0 0 0 0 0 0 0 0 0 0 0 0 0 0 0 0 0 0 2097152 0 0 0 0 0 0 0 0 0 0 0 0 0 0 0 0 0 0 0 0 0 0 0 0 0 0 0 0 0 0 0 0 0 0 0 0 0 0 0 0 2097152 0 0 0 0 0 0 8388608 0 0 0 0 128 0 0 16 0 0 0 0 0 0 0 0 0 0 0 0 0 0 0 0 0 0 0 0 0 0 0 0 0 0 0 0 0 0 0 0 0 0 0 0 0 0 0 0 0 0 0 0 0 0 0 0 0 0 0 0 0 0 0 0 0 0 0 0 0 0 0 0 0 67108864 0 0 0 0 0 0 0 0 0 0 0 0 0 512 0 0 256 0 0 0 0 0 0 0 0 0 0 0 0 0 0 0 0 0 0 0 2147483648 0 0 0 0 0 0 0 0 0 0 0 0 524288 0 0 0 0 0 0 0 0 0 4096 0 0 0 0 0 0 0 0 0 0 0 0 0 0 0 256 0 0 0 0 0 0 0 0 0 0 0 0 0 0 0 0 0 0 0 1048576 0 0 524288 0 0 0 0 0 0 0 0 0 0 0 0 0 0 0 0 0 0 0 0 0 0 0 0 0 0 0 0 0 0 0 0 0 0 0 0 0 0 0 0 0 0 0 0 0 0 0 0 0 0 0 0 0 0 0 0 0 0 0 0 0 0 0 0 0 0 0 0 0 0 0 0 0 0 0 0 0 0 0 0 0 0 0 0 0 0 8 0 0 0 0 0 0 0 0 0 0 0 0 0 0 0 0 0 0 0 0 0 0 0 0 0 0 0 0 0 0 0 0 0 0 0 0 0 0 0 0 0 0 8192 0 0 0 0 0 0 0 0 0 0 0 0 0 0 0 0 0 0 0 0 0 0 0 0 0 0 0 0 0 0 0 0 0 0 0 0 0 0 0 0 0 0 0 0 0 0 0 0 0 0 0 0 0 0 0 262144 0 0 0 0 0 0 0 0 0 0 0 0 0 0 0 0 0 0 0 0 0 0 0 0 0 0 0 0 0 0 0 0 0 0 0 0 0 0 0 0 0 0 0 0 0 0 0 0 1048576 0 0 0 0 0 0 0 0 0 0 0 0 0 0 0 0 0 0 0 2048 0 0 0 0 0 0 0 0 0 0 0 0 0 0 0 0 0 0 0 0 0 0 0 0 0 0 0 0 0 0 0 0 0 0 0 0 0 0 0 0 0 0 0 0 0 0 0 0 0 0 0 0 0 0 0 0 0 0 0 512 0 0 0 0 0 0 0 0 0 0 0 0 0 0 0 0 0 0 0 0 0 0 0 0 0 0 0 0 0 0 0 0 0 0 0 0 0 0 0 0 0 0 0 0 0 0 0 0 0 0 0 0 0 0 0 0 0 0 0 0 0 0 0 0 0 0 0 0 0 0 0 0 0 0 0 0 0 0 0 0 0 0 0 0 0 0 0 0 0 0 0 0 0 0 0 0 0 0 0 0 0 0 0 0 0 0 0 0 0 0 0 0 0 0 0 0 0 0 0 0 0 0 0 0 0 0 0 0 0 0 0 0 0 0 0 0 0 0 0 0 0 0 0 0 0 0 0 0 0 0 0 0 0 0 0 0 0 0 0 0 0 0 0 0 0 0 0 0 0 0 0 0 0 0 0 0 0 0 0 0 0 0 0 0 0 0 0 2048 0 0 0 0 0 0 0 0 0 0 0 0 0 0 0 0 0 0 0 0 0 0 0 0 0 0 0 0 0 0 0 0 0 0 0 0 4096 0 0 0 0 0 0 0 0 0 0 0 0 0 0 0 0 268435456 0 0 0 0 0 32 0 0 0 0 0 0 0 0 0 0 0 0 0 0 0 0 8388608 0 0 0 0 0 0 0 0 0 0 0 0 0 0 0 0 0 0 0 0 0 0 0 0 0 0 0 0 0 0 0 0 0 0 0 0 0 0 0 0 0 0 0 0 0 0 0 0 0 0 0 0 0 0 0 0 0 0 0 0 0 0 0 0 0 0 0 0 0 0 0 0 0 0 0 0 0 0 0 0 0 0 0 0 0 0 0 0 0 0 0 0 0 0 0 2147483648 0 0 0 0 0 0 0 0 0 0 0 0 0 0 0 0 0 0 0 1073741824 0 0 0 0 0 0 0 0 0 0 0 0 0 0 0 0 0 2149580800 0 0 0 0 0 0 0 0 0 0 0 0 0 0 0 0 0 0 0 0 0 0 0 0 0 0 2 0 0 0 0 0 0 0 0 0 0 0 0 0 0 0 0 0 0 0 0 0 0 0 0 0 0 0 0 0 0 0 0 0 8388608 0 0 0 0 0 0 0 0 0 0 0 512 0 0 131072 0 0 0 0 0 0 0 0 0 268435456 0 0 0 0 0 0 0 0 0 0 0 0 0 0 0 0 0 512 0 0 0 0 0 0 0 0 0 0 0 0 0 0 0 0 16777216 0 0 0 0 0 0 0 0 0 0 0 0 0 0 0 4 0 0 0 0 0 0 0 0 0 0 2048 0 0 0 0 0 0 0 0 0 0 0 0 0 0 0 0 0 0 0 0 0 0 0 0 0 0 0 0 0 0 0 0 0 1 32 0 0 8388608 0 0 0 0 128 0 0 0 0 0 0 0 0 0 0 0 0 0 0 0 0 0 0 0 0 0 0 0 0 0 0 0 0 0 0 0 0 0 0 0 0 0 0 0 0 0 0 0 0 0 0 0 0 0 0 0 0 0 0 0 0 0 0 0 0 0 0 0 0 0 0 0 0 0 0 0 0 0 0 0 0 0 0 0 0 0 0 0 0 0 0 0 0 0 0 0 0 0 0 0 0 0 0 0 0 0 0 256 0 0 0 0 0 0 0 0 0 0 0 0 0 0 0 524288 0 0 0 0 0 0 0 0 0 0 0 2147483648 0 0 0 0 16 0 0 0 512 0 0 0 0 0 0 0 0 0 0 0 0 0 4194304 0 0 0 0 0 0 0 0 0 0 0 0 0 0 0 0 0 0 0 0 0 0 0 0 0 0 0 0 0 0 0 0 0 0 0 0 0 0 0 0 0 0 0 0 0 0 0 0 0 0 0 0 2048 0 0 0 0 0 0 0 0 0 0 0 0 0 0 0 0 16384 0 0 0 0 0 0 0 0 0 0 0 0 0 0 0 0 0 0 0 0 0 0 0 0 0 0 131072 0 0 0 0 0 0 0 0 0 0 0 0 0 0 0 0 0 0 262144 0 0 0 0 0 0 0 0 0 0 0 0 0 0 0 0 0 0 0 0 0 0 0 0 0 0 0 0 0 0 0 0 0 0 0 0 0 32768 0 0 0 0 0 8704 0 0 0 0 0 0 0 0 0 0 0 1048576 0 0 0 0 2147483648 0 0 0 0 0 0 0 0 8388608 0 0 0 5242880 0 0 0 0 0 0 0 0 0 0 0 128 0 0 0 0 0 0 0 0 0 0 0 0 0 0 0 0 536870912 0 0 0 0 0 0 0 0 0 0 0 0 0 0 0 0 0 0 0 0 0 0 0 0 16777216 0 0 0 0 0 0 0 0 0 0 0 0 0 0 0 0 0 0 0 0 0 0 0 0 0 0 0 0 0 0 0 0 0 0 0 0 0 0 0 0 0 0 0 0 0 0 0 0 0 0 0 0 128 0 0 0 0 0 0 0 0 0 0 0 0 0 0 0 16384 0 0 0 0 0 4096 0 0 0 0 0 0 0 0 0 0 0 0 0 0 1073741824 0 0 0 0 0 0 0 8192 0 0 0 0 0 0 0 0 0 0 0 0 0 0 0 0 0 0 0 0 0 0 0 0 0 0 0 0 0 0 0 0 0 0 0 0 0 0 0 0 0 0 0 0 0 0 0 0 0 0 0 0 0 0 0 0 0 0 0 0 0 0 16 0 0 0 0 0 0 0 0 0 0 0 0 0 0 0 0 0 0 0 0 0 0 0 0 0 0 0 0 0 0 0 0 0 0 0 0 0 0 0 0 0 0 0 0 0 0 0 0 0 0 0 0 0 0 0 0 0 0 0 0 4194304 0 0 0 0 0 0 0 0 0 0 0 0 524288 0 0 0 0 0 0 0 0 0 0 0 0 0 0 0 134217728 0 0 0 0 0 0 0 0 0 0 268435456 0 0 0 0 0 0 512 0 0 0 0 0 0 0 0 0 0 0 0 0 0 0 0 0 0 0 0 0 8388608 0 0 0 0 0 0 0 0 1048576 0 0 0 0 0 0 0 0 8 0 0 0 0 0 1073741824 0 0 0 0 0 0 16 0 0 0 0 0 0 0 0 4 0 0 0 0 0 0 0 0 0 0 0 0 0 0 0 0 0 0 0 0 0 0 0 0 0 0 0 0 0 0 0 0 0 0 0 0 0 0 0 0 0 0 0 0 2 0 0 0 0 0 0 0 0 0 0 0 0 0 0 0 0 0 0 0 0 0 0 0 0 0 0 0 0 0 0 0 0 0 0 0 0 0 4194304 0 0 16777216 0 0 0 0 0 0 0 0 0 0 0 0 0 0 0 0 0 0 0 0 0 0 0 0 0 262144 0 0 0 4 0 0 0 0 0 0 0 0 0 0 0 0 0 0 0 0 0 65536 0 0 0 0 0 0 0 0 0 4 0 0 0 0 0 0 0 0 0 0 0 0 0 0 0 0 0 0 0 0 0 0 0 0 0 0 0 0 0 2147483648 0 0 0 0 0 0 0 0 0 0 0 0 4096 0 0 0 0 0 0 0 0 0 0 0 0 0 0 0 0 536870912 0 0 0 0 0 0 0 0 0 0 0 0 0 0 0 0 0 0 0 0 4 0 0 0 0 0 0 0 0 0 8388608 0 0 2 0 0 1024 0 0 0 0 0 0 0 134217728 0 0 0 0 0 0 0 0 0 0 0 0 0 0 0 0 0 0 0 0 0 0 0 0 0 0 0 0 0 0 0 0 0 0 0 0 0 0 0 0 0 0 0 67108864 0 0 0 0 0 0 0 0 0 0 0 0 0 0 0 0 0 0 0 0 0 0 0 0 0 0 0 0 0 0 0 0 0 0 0 0 0 0 0 0 0 0 0 0 0 0 0 0 0 0 0 0 0 0 0 0 0 0 0 0 0 0 0 0 0 0 0 0 0 0 0 0 0 65536 0 0 0 0 0 2097152 0 0 0 0 0 0 0 0 0 536870912 0 0 0 0 0 0 0 0 0 0 0 0 0 0 0 0 0 0 0 0 0 0 0 0 0 0 0 0 0 0 0 0 0 0 1073741824 0 0 0 0 0 0 0 0 0 0 0 0 0 0 0 0 0 0 0 0 0 0 0 0 0 0 0 0 0 0 0 0 0 0 0 0 0 0 0 0 0 0 0 0 0 0 0 0 0 0 0 0 0 8388608 0 0 0 0 0 0 0 0 0 16384 0 0 0 0 0 0 0 0 0 0 0 0 0 0 0 0 0 0 0 0 0 0 0 0 0 0 0 0 0 0 0 0 0 0 0 4194304 0 512 0 0 0 0 4 0 0 4096 0 0 0 0 0 0 0 0 0 0 0 0 0 0 0 0 0 0 0 0 0 0 0 0 0 0 0 0 0 0 0 0 0 0 0 0 0 1 0 0 0 0 268435456 0 0 0 4 25 17 0 0 0 0 0 0 0 0 0 0 0 0 0 0 0 0 0 0 0 0 0 0 0 0 0 0 0 0 0 0 0 0 0 4194304 0 0 4096 0 0 0 0 1073741824 0 0 0 0 0 0 0 0 0 0 0 0 0 0 0 0 0 0 524288 0 0 0 0 0 0 0 0 0 0 0 0 0 0 0 0 0 0 0 2097152 0 0 0 0 0 0 0 0 0 0 0 0 0 0 0 0 0 0 0 0 0 0 0 0 0 0 0 0 0 0 0 0 0 0 0 0 0 0 8192 0 0 0 0 0 0 0 0 0 0 0 0 0 65536 0 0 0 0 0 0 0 0 0 0 0 0 0 0 0 0 0 0 0 0 0 0 0 0 0 0 0 0 0 0 0 0 0 0 0 0 0 0 0 0 0 0 0 0 0 0 0 1048576 0 0 0 0 0 0 8 0 0 0 0 0 0 0 0 0 0 0 0 0 0 0 0 0 0 0 0 0 0 0 0 0 0 0 0 0 0 0 0 0 0 0 0 0 0 0 0 0 2097152 0 0 0 0 0 0 0 0 0 0 0 0 0 262272 0 0 0 0 0 0 0 0 0 0 0 0 0 0 0 1 0 1024 0 0 0 0 0 0 0 0 0 0 0 0 0 0 0 0 0 0 0 0 0 0 0 8388608 0 0 0 0 0 0 0 0 0 268435456 0 0 0 0 0 0 0 0 0 0 0 0 0 0 0 256 0 0 0 0 0 0 0 0 0 0 0 0 0 32768 0 0 0 0 16777216 0 0 0 0 0 0 0 0 0 0 0 0 0 0 0 0 0 0 0 0 0 0 0 0 0 0 0 0 0 0 0 0 0 0 0 0 0 0 0 0 0 0 0 0 0 0 0 0 0 0 0 0 0 0 0 0 0 0 0 0 1 0 0 0 0 0 0 0 0 0 0 0 0 0 0 268435456 0 0 0 0 0 0 0 0 0 0 0 0 0 0 0 0 0 0 0 0 0 0 1048576 0 256 0 0 0 0 0 0 0 0 0 0 0 0 0 0 0 0 0 0 0 0 0 0 0 0 0 0 0 0 0 0 0 0 0 0 0 0 0 0 0 0 0 0 0 0 0 0 0 0 0 0 0 0 0 0 0 0 0 0 0 0 0 0 0 0 0 0 0 0 1073741824 0 0 0 0 0 0 0 67108864 67108864 0 0 0 0 0 0 0 0 0 0 0 0 0 0 0 0 0 0 0 0 0 0 0 0 0 0 0 0 0 0 0 0 0 0 0 0 0 0 0 0 0 0 0 0 0 0 0 0 0 0 0 0 4 0 0 1048576 0 0 0 268435520 0 0 0 0 0 0 0 0 0 0 0 0 0 0 0 0 0 0 0 0 0 0 0 0 0 0 0 0 0 0 0 0 0 0 0 0 0 0 0 0 0 0 0 2147483648 0 0 0 0 0 0 0 0 0 0 0 0 0 0 0 0 0 0 0 0 0 0 0 0 0 0 0 0 0 0 0 0 0 0 0 0 0 0 0 0 0 0 0 0 0 0 0 0 0 0 0 0 0 0 0 1024 0 0 0 0 0 0 0 0 0 0 0 0 0 0 0 4194304 0 0 0 0 0 0 0 0 0 0 0 67108864 16 0 0 0 0 0 0 0 0 0 0 0 0 0 0 0 0 0 0 0 0 0 0 0 0 0 0 0 0 0 0 0 0 0 0 0 0 0 0 0 0 0 0 0 2147483648 0 0 0 0 0 0 0 0 0 0 0 0 0 0 0 0 0 0 0 0 0 0 0 1048576 0 0 0 0 0 0 0 0 0 0 0 0 0 0 0 0 0 2048 0 0 0 0 0 0 0 0 0 0 0 0 0 0 0 0 0 0 0 0 0 0 0 0 0 0 0 0 0 0 0 0 0 8192 0 0 0 0 0 0 0 0 0 0 0 0 0 0 0 0 0 0 0 0 32 0 0 0 0 0 0 0 0 0 0 0 0 0 0 0 0 0 0 0 0 0 0 67108864 0 0 0 0 0 0 0 0 0 0 0 0 0 0 0 0 0 0 0 0 0 0 0 0 0 0 0 0 0 0 0 0 0 0 0 32 0 0 0 0 0 268435456 64 0 0 0 0 0 0 0 0 0 0 0 0 0 0 0 0 0 0 0 0 0 0 0 0 0 0 0 0 0 0 0 0 0 2147483648 0 0 0 0 16 0 0 0 0 0 0 0 0 0 0 0 0 0 0 0 0 0 0 0 0 0 8388608 0 0 0 0 0 0 0 0 0 0 0 131072 0 0 0 0 0 0 0 8388608 0 0 0 0 0 0 131072 0 0 2147483648 0 0 0 0 0 0 0 0 0 0 0 0 536870912 0 0 0 0 0 1048576 262144 0 0 0 0 0 0 0 0 0 0 16 0 0 0 0 0 0 0 0 0 0 0 0 0 0 0 0 0 0 1024 0 0 0 0 0 0 0 0 0 0 0 0 0 0 0 0 0 0 0 0 0 0 262144 0 0 0 0 0 0 0 0 0 0 0 0 0 0 0 0 0 0 0 0 0 0 0 0 0 0 0 524288 0 0 0 0 0 0 0 0 0 0 0 0 0 0 0 0 0 0 0 0 0 0 0 0 0 0 0 0 0 0 0 0 0 0 0 0 0 0 0 0 0 0 1073741824 536870912 17
shrinkage=1


Tree=1
num_leaves=312
num_cat=23
split_feature=9 16 3 15 3 2 2 6 3 15 13 10 15 13 2 7 11 3 4 15 3 6 3 2 16 16 0 15 15 6 14 15 3 7 2 8 11 11 8 3 11 4 3 15 3 3 8 3 0 13 3 16 3 16 0 15 9 13 3 0 16 2 11 2 9 15 3 2 2 13 14 12 3 4 4 10 8 12 4 0 7 3 14 4 10 8 4 15 8 3 10 14 0 6 10 4 2 0 0 2 15 3 1 0 11 3 12 8 3 4 0 0 7 4 4 8 0 9 11 12 3 3 0 15 4 15 10 2 2 0 2 11 16 15 11 7 15 4 3 11 3 3 4 0 14 12 15 3 8 11 14 15 15 15 0 0 2 14 15 3 12 3 9 15 4 0 6 4 3 15 3 3 11 11 15 10 15 0 0 0 11 15 8 16 8 0 11 2 8 10 0 0 2 14 3 13 0 3 8 4 1 13 12 3 15 6 7 3 16 4 15 3 12 11 4 0 13 15 8 13 1 7 0 15 3 13 2 15 8 15 3 2 8 16 14 11 15 3 3 11 3 10 4 15 0 8 0 12 0 3 0 16 12 3 15 13 3 7 0 3 10 12 15 10 1 15 8 3 16 10 6 15 11 7 0 12 9 15 0 15 7 4 8 15 0 11 0 0 4 15 15 3 16 10 0 15 8 6 11 0 3 0 3 16 8 10 8 0 3 8 0
split_gain=24849.7 9749.85 17635.7 6083.32 8893.61 4388.63 2733.16 2051.68 3652.11 4401.46 1906.31 1711.29 1640.76 1374.75 1320.01 1034.77 1372.87 1127.99 1003.91 757.198 843.548 668.618 834.022 605.068 574.069 571.343 563.495 553.531 549.489 620.066 548.114 510.113 768.385 500.162 750.287 478.961 478.332 474.12 473.617 647.487 461.264 459.212 441.331 865.154 425.437 418.009 410.196 695.568 404.186 357.058 348.203 780.209 341.252 337.972 360.91 322.868 321.522 317.368 431.351 363.245 315.846 313.852 309.636 307.497 278.383 273.126 332.501 266.231 255.494 294.358 252.48 250.739 245.984 245.379 239.027 405.754 236.677 472.906 294.433 229.328 569.963 287.658 224.346 220.756 213.962 212.234 886.652 206.786 205.314 211.364 204.091 220.709 378.761 202.607 1250.04 268.069 201.48 703.697 201.464 379.319 200.959 197.644 189.846 309.528 184.555 239.611 175.28 174.808 167.977 498.508 165.579 161.92 319.656 159.339 154.58 149.152 148.581 143.585 140.329 139.998 136.532 135.851 134.859 133.922 133.31 131.307 128.822 128.814 127.034 124.901 124.253 137.935 308.765 124.222 121.167 135.518 176.779 192.882 213.363 141.79 230.092 120.236 118.444 230.163 120.85 114.257 282.437 179.984 108.969 110.566 108.404 244.653 198.941 104.653 188.713 104.323 102.611 102.319 226.5 101.925 101.277 112.809 99.6229 99.1805 99.1314 150.756 140.534 98.5826 98.4697 150.244 97.7645 97.654 97.5208 97.0517 94.919 93.8614 91.9967 91.4164 91.1762 124.342 89.899 179.715 234.651 88.0144 92.0826 87.6704 87.323 86.8757 86.5174 85.8801 84.0455 130.333 83.224 290.225 83.0968 82.6888 82.2715 81.3301 80.5193 78.8762 78.8623 78.5105 84.2834 78.4513 592.672 105.58 78.2971 332.168 134.053 78.1299 109.007 77.453 77.2927 76.7764 92.3002 111.554 75.8186 97.8109 248.663 75.7029 75.6045 76.5454 131.659 146.793 86.8213 73.6874 390.214 218.476 232.015 190.906 173.964 147.754 145.715 293.678 437.821 288.841 144.275 273.223 109.436 100.494 94.5492 97.5732 90.7113 85.1826 82.5166 110.181 73.5229 72.7787 98.0696 69.404 68.9181 67.7827 183.456 268.67 72.2559 114.742 67.7491 67.6998 80.8673 65.2137 65.1404 119.843 64.7832 65.8999 64.35 81.1897 180.877 69.4657 64.1462 64.1156 62.5499 61.8471 91.6023 60.2809 59.0779 59.06 58.3709 57.9948 57.8785 56.6443 187.1 56.6351 56.4363 84.0494 56.2011 114.205 55.0955 182.884 54.1944 53.9151 53.6558 130.151 192.106 96.4618 53.063 52.514 78.6102 52.3598 52.0892 83.2901 51.0751 51.0387 50.4225 276.178 143.925 60.8055 64.4236 50.1788 49.9805 83.9553 63.2395
threshold=3.5000000000000004 1.0000000180025095e-35 2.5000000000000004 19.500000000000004 8.5000000000000018 0 1 1.5000000000000002 5.5000000000000009 7.5000000000000009 1.5000000000000002 1.0000000180025095e-35 37.500000000000007 13.500000000000002 2 1.0000000180025095e-35 1.0000000180025095e-35 5.5000000000000009 2.5000000000000004 1.5000000000000002 3.5000000000000004 1.0000000180025095e-35 1.5000000000000002 3 3.5000000000000004 2.5000000000000004 82.009500000000017 5.5000000000000009 2.5000000000000004 3.5000000000000004 1.5000000000000002 2.5000000000000004 3.5000000000000004 1.0000000180025095e-35 4 5.5000000000000009 8.5000000000000018 3.5000000000000004 2.5000000000000004 4.5000000000000009 4.5000000000000009 1.5000000000000002 41.500000000000007 12.500000000000002 1.5000000000000002 6.5000000000000009 3.5000000000000004 1.5000000000000002 225.98500000000004 3.5000000000000004 8.5000000000000018 2.5000000000000004 1.0000000180025095e-35 5.5000000000000009 59.995500000000014 4.5000000000000009 1.0000000180025095e-35 2.5000000000000004 2.5000000000000004 76.995000000000019 1.5000000000000002 5 5.5000000000000009 6 1.0000000180025095e-35 1.5000000000000002 2.5000000000000004 7 8 3.5000000000000004 1.0000000180025095e-35 8.5000000000000018 17.500000000000004 16.500000000000004 58.500000000000007 12.500000000000002 1.0000000180025095e-35 4.5000000000000009 2.5000000000000004 844.97500000000014 1.0000000180025095e-35 1.5000000000000002 1.0000000180025095e-35 4.5000000000000009 16.500000000000004 10.500000000000002 2.5000000000000004 1.0000000180025095e-35 1.5000000000000002 1.5000000000000002 4.5000000000000009 1.0000000180025095e-35 400.09000000000009 71.000000000000014 61.500000000000007 307.00000000000006 9 48.955000000000005 350.02000000000004 10 32.500000000000007 4.5000000000000009 11 141.07900000000004 2.5000000000000004 2.5000000000000004 1.0000000180025095e-35 3.5000000000000004 5.5000000000000009 7.5000000000000009 97.005500000000026 440.52500000000003 1.0000000180025095e-35 5.5000000000000009 3.5000000000000004 1.5000000000000002 311.97500000000008 1.5000000000000002 2.5000000000000004 4.5000000000000009 21.500000000000004 4.5000000000000009 85.125000000000014 31.500000000000004 11.500000000000002 4.5000000000000009 1.0000000180025095e-35 12 13 445.0800000000001 14 2.5000000000000004 2.5000000000000004 5.5000000000000009 1.0000000180025095e-35 1.0000000180025095e-35 11.500000000000002 2.5000000000000004 2.5000000000000004 1.5000000000000002 1.5000000000000002 1.5000000000000002 1.5000000000000002 215.63500000000002 1.0000000180025095e-35 1.5000000000000002 1.5000000000000002 2.5000000000000004 2.5000000000000004 1.5000000000000002 1.0000000180025095e-35 8.5000000000000018 2.5000000000000004 3.5000000000000004 10.939500000000001 1044.9750000000001 15 1.0000000180025095e-35 80.500000000000014 4.5000000000000009 1.5000000000000002 8.5000000000000018 1.0000000180025095e-35 23.500000000000004 2.5000000000000004 149.97500000000002 1.5000000000000002 3.5000000000000004 2.5000000000000004 28.500000000000004 7.5000000000000009 3.5000000000000004 1.5000000000000002 3.5000000000000004 60.500000000000007 1.5000000000000002 6.5000000000000009 22.501000000000001 48.955000000000005 120.00450000000002 2.5000000000000004 5.5000000000000009 2.5000000000000004 1.5000000000000002 1.5000000000000002 19.683000000000003 1.5000000000000002 16 2.5000000000000004 8.5000000000000018 46.642000000000003 52.017000000000003 17 1.0000000180025095e-35 2.5000000000000004 1.0000000180025095e-35 445.0800000000001 5.5000000000000009 3.5000000000000004 1.5000000000000002 18 13.500000000000002 12.500000000000002 1.0000000180025095e-35 1.0000000180025095e-35 1.0000000180025095e-35 12.500000000000002 12.500000000000002 10.500000000000002 3.5000000000000004 10.500000000000002 1.5000000000000002 8.5000000000000018 2.5000000000000004 1.5000000000000002 76.995000000000019 4.5000000000000009 101.50000000000001 15.500000000000002 2.5000000000000004 19 1.0000000180025095e-35 412.20000000000005 2.5000000000000004 1.5000000000000002 1.5000000000000002 20 9.5000000000000018 2.5000000000000004 4.5000000000000009 5.5000000000000009 21 1.5000000000000002 1.5000000000000002 1.0000000180025095e-35 1.5000000000000002 1.5000000000000002 4.5000000000000009 2.5000000000000004 1.0000000180025095e-35 2.5000000000000004 2.5000000000000004 1.5000000000000002 6.5000000000000009 49.956500000000013 2.5000000000000004 992.45000000000016 471.50000000000006 171.06500000000003 5.5000000000000009 472.06000000000006 1.5000000000000002 2.5000000000000004 1.5000000000000002 3.5000000000000004 1.5000000000000002 4.5000000000000009 1.0000000180025095e-35 159.97500000000002 13.500000000000002 2.5000000000000004 2.5000000000000004 6.5000000000000009 13.500000000000002 22 3.5000000000000004 1.5000000000000002 1.5000000000000002 1.5000000000000002 2.5000000000000004 1075.5000000000002 1.5000000000000002 1.5000000000000002 1.0000000180025095e-35 125.03500000000001 1.0000000180025095e-35 1.0000000180025095e-35 18.500000000000004 52.017000000000003 26.500000000000004 1.5000000000000002 244.50000000000003 7.5000000000000009 23.500000000000004 701.20500000000004 2.5000000000000004 1000.0550000000002 844.97500000000014 4.5000000000000009 9.5000000000000018 81.500000000000014 8.5000000000000018 8.5000000000000018 11.500000000000002 32.363000000000007 26.500000000000004 2.5000000000000004 2.5000000000000004 2.5000000000000004 86.997000000000014 8.5000000000000018 37.816500000000012 4.5000000000000009 2.5000000000000004 5.5000000000000009 1.5000000000000002 1.5000000000000002 55.018000000000008 2.5000000000000004 1.5000000000000002 844.97500000000014
decision_type=2 2 2 2 2 9 9 2 2 2 2 2 2 2 9 2 2 2 2 2 2 2 2 9 2 2 2 2 2 2 2 2 2 2 9 2 2 2 2 2 2 2 2 2 2 2 2 2 2 2 2 2 2 2 2 2 2 2 2 2 2 9 2 9 2 2 2 9 9 2 2 2 2 2 2 2 2 2 2 2 2 2 2 2 2 2 2 2 2 2 2 2 2 2 2 2 9 2 2 9 2 2 1 2 2 2 2 2 2 2 2 2 2 2 2 2 2 2 2 2 2 2 2 2 2 2 2 9 9 2 9 2 2 2 2 2 2 2 2 2 2 2 2 2 2 2 2 2 2 2 2 2 2 2 2 2 9 2 2 2 2 2 2 2 2 2 2 2 2 2 2 2 2 2 2 2 2 2 2 2 2 2 2 2 2 2 2 9 2 2 2 2 9 2 2 2 2 2 2 2 1 2 2 2 2 2 2 2 2 2 2 2 2 2 2 2 2 2 2 2 1 2 2 2 2 2 9 2 2 2 2 9 2 2 2 2 2 2 2 2 2 2 2 2 2 2 2 2 2 2 2 2 2 2 2 2 2 2 2 2 2 2 2 2 1 2 2 2 2 2 2 2 2 2 2 2 2 2 2 2 2 2 2 2 2 2 2 2 2 2 2 2 2 2 2 2 2 2 2 2 2 2 2 2 2 2 2 2 2 2 2
left_child=1 2 6 4 13 10 44 14 19 28 12 70 37 31 46 16 17 65 26 20 73 128 52 79 -14 40 121 300 117 153 157 32 219 34 35 49 50 90 39 -38 57 64 43 55 82 100 62 -48 206 88 63 -52 87 54 170 74 164 59 -59 150 -51 76 134 83 -24 66 -12 216 69 199 114 -56 173 194 175 189 77 78 -21 145 81 155 195 104 120 98 174 126 129 142 91 111 96 94 95 -5 97 -93 127 118 168 113 103 156 116 115 276 -71 109 122 -85 167 141 297 -4 -106 264 -10 197 -31 262 190 -20 249 -34 -120 -23 -70 186 200 131 -91 178 188 -7 136 137 139 148 250 213 246 143 -90 -145 220 147 301 149 -139 151 152 -18 154 -30 -81 -54 183 -159 -148 177 -162 171 212 165 166 -43 -3 -37 -170 -11 -28 -112 -50 -87 -6 -86 -119 -133 -180 209 182 -182 184 -17 -108 273 -129 -61 -76 -13 -192 193 -69 -9 275 -105 211 -53 -65 251 202 -44 204 -84 -205 207 298 -209 -144 -211 286 -79 214 215 -141 -35 218 274 -2 221 222 -16 224 -224 231 227 228 230 238 -227 232 -189 234 242 -236 237 240 -230 -232 -228 -242 -234 -244 -245 -246 -113 290 -249 256 289 252 254 -254 255 -25 -27 258 -130 268 -78 -262 -57 -264 265 266 -36 -268 -177 -163 -250 272 -257 -8 -218 -1 -46 -127 -68 -137 -281 -96 -40 -284 285 -151 287 -100 -200 -136 291 -55 293 -293 -58 296 -62 -22 299 -49 -19 -147 -233 305 -305 306 -304 -179 309 310 -118
right_child=3 5 11 93 42 7 21 8 9 53 15 18 24 -15 23 30 25 27 108 61 101 22 41 33 -26 123 162 -29 29 119 -32 -33 124 67 36 45 38 -39 282 -41 -42 56 201 -45 106 -47 47 48 72 60 51 198 102 247 71 84 294 58 -60 133 295 -63 -64 68 -66 -67 278 192 85 107 -72 -73 -74 -75 75 -77 260 163 -80 80 -82 -83 203 110 176 86 -88 -89 89 130 -92 92 -94 -95 281 -97 -98 -99 99 -101 -102 -103 -104 196 105 -107 185 -109 -110 -111 172 112 -114 -115 -116 -117 308 160 125 -121 -122 -123 -124 -125 -126 277 -128 187 257 -131 -132 132 -134 -135 135 279 -138 138 -140 140 -142 -143 180 144 -146 146 159 -149 -150 284 -152 -153 -154 -155 -156 -157 -158 158 -160 -161 161 269 -164 -165 -166 -167 -168 -169 169 -171 -172 -173 -174 -175 -176 259 -178 307 179 -181 181 -183 -184 -185 -186 -187 -188 225 -190 -191 191 -193 -194 -195 -196 -197 -198 -199 288 -201 -202 -203 -204 205 -206 -207 -208 208 -210 210 -212 -213 -214 -215 -216 -217 217 -219 -220 -221 -222 -223 223 -225 -226 226 236 -229 229 -231 239 302 233 -235 235 -237 -238 -239 -240 -241 241 -243 243 244 245 -247 -248 248 270 -251 -252 -253 253 -255 -256 271 -258 -259 -260 -261 261 -263 263 -265 -266 -267 267 -269 -270 -271 -272 -273 -274 -275 -276 -277 -278 -279 -280 280 -282 -283 283 -285 -286 -287 -288 -289 -290 -291 -292 292 -294 -295 -296 -297 -298 -299 -300 -301 -302 -303 303 304 -306 -307 -308 -309 -310 -311 -312
